{"learner":{"attributes":{"best_iteration":"590","best_score":"0.00010040998490941","scikit_learn":"{\"_estimator_type\": \"classifier\"}"},"feature_names":[],"feature_types":[],"gradient_booster":{"model":{"gbtree_model_param":{"num_parallel_tree":"1","num_trees":"641"},"iteration_indptr":[0,1,2,3,4,5,6,7,8,9,10,11,12,13,14,15,16,17,18,19,20,21,22,23,24,25,26,27,28,29,30,31,32,33,34,35,36,37,38,39,40,41,42,43,44,45,46,47,48,49,50,51,52,53,54,55,56,57,58,59,60,61,62,63,64,65,66,67,68,69,70,71,72,73,74,75,76,77,78,79,80,81,82,83,84,85,86,87,88,89,90,91,92,93,94,95,96,97,98,99,100,101,102,103,104,105,106,107,108,109,110,111,112,113,114,115,116,117,118,119,120,121,122,123,124,125,126,127,128,129,130,131,132,133,134,135,136,137,138,139,140,141,142,143,144,145,146,147,148,149,150,151,152,153,154,155,156,157,158,159,160,161,162,163,164,165,166,167,168,169,170,171,172,173,174,175,176,177,178,179,180,181,182,183,184,185,186,187,188,189,190,191,192,193,194,195,196,197,198,199,200,201,202,203,204,205,206,207,208,209,210,211,212,213,214,215,216,217,218,219,220,221,222,223,224,225,226,227,228,229,230,231,232,233,234,235,236,237,238,239,240,241,242,243,244,245,246,247,248,249,250,251,252,253,254,255,256,257,258,259,260,261,262,263,264,265,266,267,268,269,270,271,272,273,274,275,276,277,278,279,280,281,282,283,284,285,286,287,288,289,290,291,292,293,294,295,296,297,298,299,300,301,302,303,304,305,306,307,308,309,310,311,312,313,314,315,316,317,318,319,320,321,322,323,324,325,326,327,328,329,330,331,332,333,334,335,336,337,338,339,340,341,342,343,344,345,346,347,348,349,350,351,352,353,354,355,356,357,358,359,360,361,362,363,364,365,366,367,368,369,370,371,372,373,374,375,376,377,378,379,380,381,382,383,384,385,386,387,388,389,390,391,392,393,394,395,396,397,398,399,400,401,402,403,404,405,406,407,408,409,410,411,412,413,414,415,416,417,418,419,420,421,422,423,424,425,426,427,428,429,430,431,432,433,434,435,436,437,438,439,440,441,442,443,444,445,446,447,448,449,450,451,452,453,454,455,456,457,458,459,460,461,462,463,464,465,466,467,468,469,470,471,472,473,474,475,476,477,478,479,480,481,482,483,484,485,486,487,488,489,490,491,492,493,494,495,496,497,498,499,500,501,502,503,504,505,506,507,508,509,510,511,512,513,514,515,516,517,518,519,520,521,522,523,524,525,526,527,528,529,530,531,532,533,534,535,536,537,538,539,540,541,542,543,544,545,546,547,548,549,550,551,552,553,554,555,556,557,558,559,560,561,562,563,564,565,566,567,568,569,570,571,572,573,574,575,576,577,578,579,580,581,582,583,584,585,586,587,588,589,590,591,592,593,594,595,596,597,598,599,600,601,602,603,604,605,606,607,608,609,610,611,612,613,614,615,616,617,618,619,620,621,622,623,624,625,626,627,628,629,630,631,632,633,634,635,636,637,638,639,640,641],"tree_info":[0,0,0,0,0,0,0,0,0,0,0,0,0,0,0,0,0,0,0,0,0,0,0,0,0,0,0,0,0,0,0,0,0,0,0,0,0,0,0,0,0,0,0,0,0,0,0,0,0,0,0,0,0,0,0,0,0,0,0,0,0,0,0,0,0,0,0,0,0,0,0,0,0,0,0,0,0,0,0,0,0,0,0,0,0,0,0,0,0,0,0,0,0,0,0,0,0,0,0,0,0,0,0,0,0,0,0,0,0,0,0,0,0,0,0,0,0,0,0,0,0,0,0,0,0,0,0,0,0,0,0,0,0,0,0,0,0,0,0,0,0,0,0,0,0,0,0,0,0,0,0,0,0,0,0,0,0,0,0,0,0,0,0,0,0,0,0,0,0,0,0,0,0,0,0,0,0,0,0,0,0,0,0,0,0,0,0,0,0,0,0,0,0,0,0,0,0,0,0,0,0,0,0,0,0,0,0,0,0,0,0,0,0,0,0,0,0,0,0,0,0,0,0,0,0,0,0,0,0,0,0,0,0,0,0,0,0,0,0,0,0,0,0,0,0,0,0,0,0,0,0,0,0,0,0,0,0,0,0,0,0,0,0,0,0,0,0,0,0,0,0,0,0,0,0,0,0,0,0,0,0,0,0,0,0,0,0,0,0,0,0,0,0,0,0,0,0,0,0,0,0,0,0,0,0,0,0,0,0,0,0,0,0,0,0,0,0,0,0,0,0,0,0,0,0,0,0,0,0,0,0,0,0,0,0,0,0,0,0,0,0,0,0,0,0,0,0,0,0,0,0,0,0,0,0,0,0,0,0,0,0,0,0,0,0,0,0,0,0,0,0,0,0,0,0,0,0,0,0,0,0,0,0,0,0,0,0,0,0,0,0,0,0,0,0,0,0,0,0,0,0,0,0,0,0,0,0,0,0,0,0,0,0,0,0,0,0,0,0,0,0,0,0,0,0,0,0,0,0,0,0,0,0,0,0,0,0,0,0,0,0,0,0,0,0,0,0,0,0,0,0,0,0,0,0,0,0,0,0,0,0,0,0,0,0,0,0,0,0,0,0,0,0,0,0,0,0,0,0,0,0,0,0,0,0,0,0,0,0,0,0,0,0,0,0,0,0,0,0,0,0,0,0,0,0,0,0,0,0,0,0,0,0,0,0,0,0,0,0,0,0,0,0,0,0,0,0,0,0,0,0,0,0,0,0,0,0,0,0,0,0,0,0,0,0,0,0,0,0,0,0,0,0,0,0,0,0,0,0,0,0,0,0,0,0,0,0,0,0,0,0,0,0,0,0,0,0,0,0,0,0,0,0,0,0,0,0,0,0,0,0,0,0,0,0,0,0,0,0,0,0,0,0,0,0,0,0,0,0,0,0,0,0,0,0,0,0,0,0,0,0,0,0,0,0,0,0,0,0,0,0,0,0,0,0,0,0,0,0,0,0],"trees":[{"base_weights":[1.2708996E-1,1.2329692E0,-1.2160264E0,1.3166369E0,6.5688974E-1,-3.1538227E0,6.691342E-2,6.690511E-2,1.0914546E0,-5.0527537E-1,1.3285953E0,6.661508E-2,-3.9320943E0,5.7571226E-1,6.5797396E-2,-2.1083016E0,6.582667E-2,2.0455796E-2,6.6665165E-2,4.0342864E-2,-1.9699013E-1,1.2905254E0,-1.4933339E0,-3.3959568E0,1.2164531E0,2.371345E-2,6.552523E-2,-2.8092115E0,5.635273E-2,4.863285E-2,-3.67655E0,1.6667722E-2,6.319203E-2,-1.7220248E-1,4.0342864E-2,-1.931834E-2,-1.8914549E-1],"categories":[],"categories_nodes":[],"categories_segments":[],"categories_sizes":[],"default_left":[0,0,0,0,0,0,0,0,0,0,0,0,0,0,0,0,0,0,0,0,0,0,0,0,0,0,0,0,0,0,0,0,0,0,0,0,0],"id":0,"left_children":[1,3,5,7,9,11,-1,-1,13,15,17,-1,19,21,-1,23,-1,-1,-1,-1,-1,25,27,29,31,-1,-1,33,-1,-1,35,-1,-1,-1,-1,-1,-1],"loss_changes":[7.0363994E3,1.2435913E2,1.0592798E4,9.499756E0,2.594303E2,4.253291E3,0E0,0E0,2.2718857E1,3.594617E2,3.6505127E-1,0E0,4.10625E1,9.550432E1,0E0,2.8391776E2,0E0,0E0,0E0,0E0,0E0,1.5410614E-1,6.0783333E1,6.164508E1,3.7301254E-1,0E0,0E0,2.8972084E1,0E0,0E0,1.4188721E1,0E0,0E0,0E0,0E0,0E0,0E0],"parents":[2147483647,0,0,1,1,2,2,3,3,4,4,5,5,8,8,9,9,10,10,12,12,13,13,15,15,21,21,22,22,23,23,24,24,27,27,30,30],"right_children":[2,4,6,8,10,12,-1,-1,14,16,18,-1,20,22,-1,24,-1,-1,-1,-1,-1,26,28,30,32,-1,-1,34,-1,-1,36,-1,-1,-1,-1,-1,-1],"split_conditions":[6.1944413E-1,5.3530705E-1,2.8493954E-3,4.8647442E-1,1.652622E-1,5.2882796E-3,6.691342E-2,6.690511E-2,7.782244E-2,7.498345E-4,1.6884725E-1,6.661508E-2,4.4069067E-3,3.0324828E-2,6.5797396E-2,3.5888878E-1,6.582667E-2,2.0455796E-2,6.6665165E-2,4.0342864E-2,-1.9699013E-1,3.2387763E-1,3.5253778E-1,2.3142123E-3,3.1173846E-1,2.371345E-2,6.552523E-2,1.9724114E-1,5.635273E-2,4.863285E-2,5.2882796E-3,1.6667722E-2,6.319203E-2,-1.7220248E-1,4.0342864E-2,-1.931834E-2,-1.8914549E-1],"split_indices":[8,8,10,8,3,0,0,0,3,4,3,0,5,3,0,11,0,0,0,0,0,6,11,3,6,0,0,0,0,0,0,0,0,0,0,0,0],"split_type":[0,0,0,0,0,0,0,0,0,0,0,0,0,0,0,0,0,0,0,0,0,0,0,0,0,0,0,0,0,0,0,0,0,0,0,0,0],"sum_hessian":[4.7352715E3,2.5970366E3,2.1382349E3,2.266563E3,3.3047342E2,1.2157106E3,9.225243E2,2.0647964E3,2.0176671E2,1.2113573E2,2.0933769E2,1.7962158E2,1.036089E3,6.2271336E1,1.3949536E2,6.4353355E1,5.6782375E1,1.5141966E0,2.0782349E2,1.5141966E0,1.0345748E3,4.6561546E1,1.570979E1,4.6372272E1,1.7981085E1,1.7034712E0,4.4858074E1,1.0410102E1,5.2996883E0,2.6498442E0,4.3722427E1,1.3249221E0,1.6656162E1,8.8959055E0,1.5141966E0,1.5141966E0,4.2208233E1],"tree_param":{"num_deleted":"0","num_feature":"16","num_nodes":"37","size_leaf_vector":"1"}},{"base_weights":[1.2466314E-1,1.2086513E0,-1.1111783E0,1.297811E0,6.432742E-1,-2.7782743E0,6.581368E-2,6.573389E-2,1.0518917E0,6.554165E-2,-2.603584E-2,-3.4081216E0,6.552894E-2,7.000762E-1,6.455484E-2,-3.3035603E0,6.5382466E-2,3.9617013E-2,-1.7071447E-1,-1.1101117E0,6.450264E-2,-2.6612243E-2,-1.6834389E-1,5.7365276E-2,-1.4576069E-1],"categories":[],"categories_nodes":[],"categories_segments":[],"categories_sizes":[],"default_left":[0,0,0,0,0,0,0,0,0,0,0,0,0,0,0,0,0,0,0,0,0,0,0,0,0],"id":1,"left_children":[1,3,5,7,9,11,-1,-1,13,-1,15,17,-1,19,-1,21,-1,-1,-1,23,-1,-1,-1,-1,-1],"loss_changes":[6.3619404E3,1.26693115E2,8.983987E3,7.677246E0,1.5489528E2,3.3934434E3,0E0,0E0,1.131546E1,0E0,7.6513513E2,3.2253906E1,0E0,6.652596E1,0E0,7.0911255E0,0E0,0E0,0E0,6.658528E1,0E0,0E0,0E0,0E0,0E0],"parents":[2147483647,0,0,1,1,2,2,3,3,4,4,5,5,8,8,10,10,11,11,13,13,15,15,19,19],"right_children":[2,4,6,8,10,12,-1,-1,14,-1,16,18,-1,20,-1,22,-1,-1,-1,24,-1,-1,-1,-1,-1],"split_conditions":[6.1944413E-1,5.309648E-1,2.8493954E-3,4.9407762E-1,6.4451896E-2,3.762596E-1,6.581368E-2,6.573389E-2,3.2288316E-1,6.554165E-2,3.762596E-1,4.4069067E-3,6.552894E-2,2.8493954E-3,6.455484E-2,2.5938055E-1,6.5382466E-2,3.9617013E-2,-1.7071447E-1,5.2882796E-3,6.450264E-2,-2.6612243E-2,-1.6834389E-1,5.7365276E-2,-1.4576069E-1],"split_indices":[8,8,10,8,5,5,0,0,11,0,5,5,0,10,0,6,0,0,0,0,0,0,0,0,0],"split_type":[0,0,0,0,0,0,0,0,0,0,0,0,0,0,0,0,0,0,0,0,0,0,0,0,0],"sum_hessian":[4.746999E3,2.5288774E3,2.2181213E3,2.1832798E3,3.4559775E2,1.3149271E3,9.031943E2,2.0390812E3,1.4419864E2,1.7254538E2,1.7305237E2,1.1395563E3,1.7537083E2,5.995111E1,8.4247536E1,4.962418E1,1.2342819E2,1.483933E0,1.1380724E3,1.4519677E1,4.5431435E1,1.3185643E0,4.830562E1,6.6134567E0,7.9062204E0],"tree_param":{"num_deleted":"0","num_feature":"16","num_nodes":"25","size_leaf_vector":"1"}},{"base_weights":[1.1382485E-1,1.1878834E0,-1.0476274E0,1.2775844E0,6.325469E-1,-2.5107436E0,6.479975E-2,6.466628E-2,1.0454018E0,-4.511225E-1,1.2872881E0,-3.03025E0,6.4511955E-2,4.977496E-1,6.4247824E-2,6.3784085E-2,-1.6998723E0,2.4967976E-2,6.458614E-2,3.8915344E-2,-1.5177165E-1,6.287902E-2,-1.347367E0,-2.9634945E0,6.2159445E-2,-2.2559E0,5.0196197E-2,-1.5062311E-1,-1.2894006E-2,-1.388141E-1,3.634753E-2],"categories":[],"categories_nodes":[],"categories_segments":[],"categories_sizes":[],"default_left":[0,0,0,0,0,0,0,0,0,0,0,0,0,0,0,0,0,0,0,0,0,0,0,0,0,0,0,0,0,0,0],"id":2,"left_children":[1,3,5,7,9,11,-1,-1,13,15,17,19,-1,21,-1,-1,23,-1,-1,-1,-1,-1,25,27,-1,29,-1,-1,-1,-1,-1],"loss_changes":[5.8456494E3,1.20467285E2,7.723499E3,6.3049316E0,2.421998E2,2.7416543E3,0E0,0E0,1.7495544E1,2.803324E2,9.762573E-2,2.6444336E1,0E0,6.2957825E1,0E0,0E0,2.8368164E2,0E0,0E0,0E0,0E0,0E0,3.0524647E1,6.2409363E0,0E0,1.7307446E1,0E0,0E0,0E0,0E0,0E0],"parents":[2147483647,0,0,1,1,2,2,3,3,4,4,5,5,8,8,9,9,10,10,11,11,13,13,16,16,22,22,23,23,25,25],"right_children":[2,4,6,8,10,12,-1,-1,14,16,18,20,-1,22,-1,-1,24,-1,-1,-1,-1,-1,26,28,-1,30,-1,-1,-1,-1,-1],"split_conditions":[6.1944413E-1,5.309648E-1,2.8493954E-3,4.9407762E-1,1.6162895E-1,3.762596E-1,6.479975E-2,6.466628E-2,7.782244E-2,5.44887E-2,1.652622E-1,4.4069067E-3,6.4511955E-2,3.2443553E-2,6.4247824E-2,6.3784085E-2,3.762596E-1,2.4967976E-2,6.458614E-2,3.8915344E-2,-1.5177165E-1,6.287902E-2,3.1645495E-1,2.3532362E-1,6.2159445E-2,1.8845516E-1,5.0196197E-2,-1.5062311E-1,-1.2894006E-2,-1.388141E-1,3.634753E-2],"split_indices":[8,8,10,8,3,5,0,0,3,5,3,5,0,3,0,0,5,0,0,0,0,0,11,0,0,0,0,0,0,0,0],"split_type":[0,0,0,0,0,0,0,0,0,0,0,0,0,0,0,0,0,0,0,0,0,0,0,0,0,0,0,0,0,0,0],"sum_hessian":[4.684015E3,2.4335527E3,2.2504622E3,2.0940154E3,3.3953732E2,1.3854554E3,8.650068E2,1.9567825E3,1.3723283E2,1.2799778E2,2.1153955E2,1.2190432E3,1.6641226E2,4.2697884E1,9.453495E1,5.3707737E1,7.429005E1,1.8197339E0,2.0971982E2,1.453948E0,1.2175892E3,3.0468987E1,1.2228896E1,5.1969612E1,2.232043E1,8.849891E0,3.3790054E0,5.0934364E1,1.035247E0,7.594262E0,1.255628E0],"tree_param":{"num_deleted":"0","num_feature":"16","num_nodes":"31","size_leaf_vector":"1"}},{"base_weights":[1.15255386E-1,1.1721566E0,-9.871187E-1,1.2570448E0,6.097054E-1,-2.2941353E0,6.3864306E-2,6.372836E-2,1.032118E0,-4.4966874E-1,1.2533659E0,-2.7431479E0,6.3572586E-2,5.3241503E-1,6.2473435E-2,6.27174E-2,-1.5623937E0,3.4353065E-1,6.3625686E-2,4.167437E-2,-1.3743982E-1,1.1865753E0,-1.063124E0,-1.3530423E-1,6.1090376E-2,-5.8161434E-2,4.946986E-2,6.2045604E-2,3.2667542E-1,-1.7638669E0,4.9857736E-2,3.697027E-2,-1.5405242E-2,4.5226574E-2,-1.2734628E-1],"categories":[],"categories_nodes":[],"categories_segments":[],"categories_sizes":[],"default_left":[0,0,0,0,0,0,0,0,0,0,0,0,0,0,0,0,0,0,0,0,0,0,0,0,0,0,0,0,0,0,0,0,0,0,0],"id":3,"left_children":[1,3,5,7,9,11,-1,-1,13,15,17,19,-1,21,-1,-1,23,25,-1,-1,-1,27,29,-1,-1,-1,-1,-1,31,33,-1,-1,-1,-1,-1],"loss_changes":[5.39386E3,1.1207788E2,6.709626E3,6.774414E0,2.1322177E2,2.304316E3,0E0,0E0,1.601773E1,2.2685184E2,2.9472046E0,2.8083008E1,0E0,5.16763E1,0E0,0E0,2.3320447E2,6.3805714E0,0E0,0E0,0E0,1.2173309E0,2.2797668E1,0E0,0E0,0E0,0E0,0E0,1.1242067E0,2.577995E1,0E0,0E0,0E0,0E0,0E0],"parents":[2147483647,0,0,1,1,2,2,3,3,4,4,5,5,8,8,9,9,10,10,11,11,13,13,16,16,17,17,21,21,22,22,28,28,29,29],"right_children":[2,4,6,8,10,12,-1,-1,14,16,18,20,-1,22,-1,-1,24,26,-1,-1,-1,28,30,-1,-1,-1,-1,-1,32,34,-1,-1,-1,-1,-1],"split_conditions":[6.1944413E-1,5.3530705E-1,2.8493954E-3,4.9407762E-1,1.5527584E-1,3.762596E-1,6.3864306E-2,6.372836E-2,7.782244E-2,5.44887E-2,1.652622E-1,4.4069067E-3,6.3572586E-2,3.2443553E-2,6.2473435E-2,6.27174E-2,3.762596E-1,1.5739311E-1,6.3625686E-2,4.167437E-2,-1.3743982E-1,1.8557614E-2,1.9724114E-1,-1.3530423E-1,6.1090376E-2,-5.8161434E-2,4.946986E-2,6.2045604E-2,5.1254934E-1,5.2882796E-3,4.9857736E-2,3.697027E-2,-1.5405242E-2,4.5226574E-2,-1.2734628E-1],"split_indices":[8,8,10,8,3,5,0,0,3,5,3,5,0,3,0,0,5,11,0,0,0,3,0,0,0,0,0,0,8,0,0,0,0,0,0],"split_type":[0,0,0,0,0,0,0,0,0,0,0,0,0,0,0,0,0,0,0,0,0,0,0,0,0,0,0,0,0,0,0,0,0,0,0],"sum_hessian":[4.62753E3,2.362459E3,2.265071E3,2.0515874E3,3.108716E2,1.4361251E3,8.2894586E2,1.8989841E3,1.5260321E2,1.17607574E2,1.9326405E2,1.2757067E3,1.6041849E2,4.7302174E1,1.0530104E2,4.640939E1,7.119819E1,4.373882E0,1.8889017E2,1.7803657E0,1.2739263E3,3.3729584E1,1.3572587E1,5.0487183E1,2.0711006E1,1.0719846E0,3.3018973E0,3.1308146E1,2.421439E0,1.0235241E1,3.3373456E0,1.367487E0,1.053952E0,2.2869532E0,7.948288E0],"tree_param":{"num_deleted":"0","num_feature":"16","num_nodes":"35","size_leaf_vector":"1"}},{"base_weights":[1.14079066E-1,-8.358402E-1,6.305858E-2,-1.8537323E0,6.3021086E-2,1.2260598E0,-2.3534558E0,1.24516E0,-1.846654E-1,6.2112182E-2,-2.5212357E0,6.264637E-2,4.7848696E-1,4.061866E-2,-6.878354E-2,-2.5253875E0,3.8228747E-2,4.061976E-2,-9.290404E-3,-1.2634076E-1,-3.5524677E-2],"categories":[],"categories_nodes":[],"categories_segments":[],"categories_sizes":[],"default_left":[0,0,0,0,0,0,0,0,0,0,0,0,0,0,0,0,0,0,0,0,0],"id":4,"left_children":[1,3,-1,5,-1,7,9,11,13,-1,15,-1,17,-1,-1,19,-1,-1,-1,-1,-1],"loss_changes":[4.956347E3,5.3115977E3,0E0,2.581273E3,0E0,6.5496826E0,8.7293604E2,7.792969E-1,5.872159E0,0E0,2.0726562E1,0E0,1.0249153E0,0E0,0E0,1.7705078E0,0E0,0E0,0E0,0E0,0E0],"parents":[2147483647,0,0,1,1,3,3,5,5,6,6,7,7,8,8,10,10,12,12,15,15],"right_children":[2,4,-1,6,-1,8,10,12,14,-1,16,-1,18,-1,-1,20,-1,-1,-1,-1,-1],"split_conditions":[7.498345E-4,4.154549E-3,6.305858E-2,7.100542E-2,6.3021086E-2,6.4451896E-2,4.685342E-1,5.44887E-2,1.59215E-1,6.2112182E-2,8.295113E-1,6.264637E-2,3.34616E-1,4.061866E-2,-6.878354E-2,3.5089985E-1,3.8228747E-2,4.061976E-2,-9.290404E-3,-1.2634076E-1,-3.5524677E-2],"split_indices":[4,12,0,5,0,5,8,5,3,0,6,0,8,0,0,5,0,0,0,0,0],"split_type":[0,0,0,0,0,0,0,0,0,0,0,0,0,0,0,0,0,0,0,0,0],"sum_hessian":[4.54662E3,2.4872083E3,2.0594116E3,1.6743175E3,8.128908E2,2.3354259E2,1.4407749E3,2.3053864E2,3.0039477E0,6.394581E1,1.3768291E3,2.2759854E2,2.9400904E0,1.8081675E0,1.1957804E0,1.3753228E3,1.5063498E0,1.8082362E0,1.1318543E0,1.3738497E3,1.4730159E0],"tree_param":{"num_deleted":"0","num_feature":"16","num_nodes":"21","size_leaf_vector":"1"}},{"base_weights":[1.0799462E-1,-8.0333734E-1,6.2258173E-2,1.1929442E0,-1.8537375E0,6.200207E-2,8.9667834E-2,1.2053359E0,-2.3331108E0,5.9772667E-2,-2.0674605E0,6.2033076E-2,4.092543E-1,5.2062254E-2,-2.3460226E0,-1.0977588E-1,-2.4337426E-2,1.0049206E0,-6.893154E-2,-3.012586E-2,-1.1734714E-1,5.4825705E-2,7.5811036E-3],"categories":[],"categories_nodes":[],"categories_segments":[],"categories_sizes":[],"default_left":[0,0,0,0,0,0,0,0,0,0,0,0,0,0,0,0,0,0,0,0,0,0,0],"id":5,"left_children":[1,3,-1,5,7,-1,9,11,13,-1,15,-1,17,-1,19,-1,-1,21,-1,-1,-1,-1,-1],"loss_changes":[4.6514414E3,5.226943E3,0E0,4.4557373E1,2.3975054E3,0E0,8.899367E1,5.7322693E0,6.3966797E1,0E0,1.4937897E0,0E0,1.3015215E1,0E0,8.4375E-1,0E0,0E0,5.191412E-1,0E0,0E0,0E0,0E0,0E0],"parents":[2147483647,0,0,1,1,3,3,4,4,6,6,7,7,8,8,10,10,12,12,14,14,17,17],"right_children":[2,4,-1,6,8,-1,10,12,14,-1,16,-1,18,-1,20,-1,-1,22,-1,-1,-1,-1,-1],"split_conditions":[7.498345E-4,6.933172E-2,6.2258173E-2,5.2882796E-3,1.1273929E-2,6.200207E-2,4.6449593E-1,6.4451896E-2,4.685342E-1,5.9772667E-2,6.1498445E-1,6.2033076E-2,1.0728011E-1,5.2062254E-2,3.1693976E-2,-1.0977588E-1,-2.4337426E-2,3.3365247E-1,-6.893154E-2,-3.012586E-2,-1.1734714E-1,5.4825705E-2,7.5811036E-3],"split_indices":[4,0,0,0,2,0,8,5,8,0,8,0,3,0,11,0,0,11,0,0,0,0,0],"split_type":[0,0,0,0,0,0,0,0,0,0,0,0,0,0,0,0,0,0,0,0,0,0,0],"sum_hessian":[4.4863774E3,2.4906519E3,1.9957255E3,8.586518E2,1.6320001E3,8.23379E2,3.527273E1,2.2089111E2,1.411109E3,2.3613705E1,1.1659025E1,2.1097095E2,9.920176E0,5.075359E0,1.4060337E3,1.0425491E1,1.2335343E0,7.7695403E0,2.1506355E0,1.0877154E0,1.4049459E3,6.758996E0,1.0105442E0],"tree_param":{"num_deleted":"0","num_feature":"16","num_nodes":"23","size_leaf_vector":"1"}},{"base_weights":[1.0637817E-1,1.1179667E0,-8.493863E-1,1.2097532E0,5.7262063E-1,-1.8610609E0,6.1457515E-2,6.1450243E-2,9.9074155E-1,-3.423346E-1,1.2189977E0,-2.191447E0,6.1160594E-2,5.442358E-1,6.05223E-2,1.1907457E0,-1.269021E0,1.44715775E-2,6.1209925E-2,3.5437133E-2,-1.0973679E-1,-8.7753326E-1,5.9952486E-2,1.1989428E-2,6.039482E-2,-1.1025081E-1,5.896783E-2,5.370614E-2,-1.1060859E-1],"categories":[],"categories_nodes":[],"categories_segments":[],"categories_sizes":[],"default_left":[0,0,0,0,0,0,0,0,0,0,0,0,0,0,0,0,0,0,0,0,0,0,0,0,0,0,0,0,0],"id":6,"left_children":[1,3,5,7,9,11,-1,-1,13,15,17,19,-1,21,-1,23,25,-1,-1,-1,-1,27,-1,-1,-1,-1,-1,-1,-1],"loss_changes":[4.2071523E3,1.0512134E2,4.707356E3,6.407715E0,1.8164584E2,1.5366831E3,0E0,0E0,1.4182236E1,1.828511E2,5.148926E-1,1.4527832E1,0E0,4.919229E1,0E0,5.030594E-1,1.8602339E2,0E0,0E0,0E0,0E0,4.635146E1,0E0,0E0,0E0,0E0,0E0,0E0,0E0],"parents":[2147483647,0,0,1,1,2,2,3,3,4,4,5,5,8,8,9,9,10,10,11,11,13,13,15,15,16,16,21,21],"right_children":[2,4,6,8,10,12,-1,-1,14,16,18,20,-1,22,-1,24,26,-1,-1,-1,-1,28,-1,-1,-1,-1,-1,-1,-1],"split_conditions":[6.1944413E-1,5.309648E-1,2.8493954E-3,4.8647442E-1,1.652622E-1,3.762596E-1,6.1457515E-2,6.1450243E-2,7.782244E-2,1.1273929E-2,1.6884725E-1,4.4069067E-3,6.1160594E-2,4.3973008E-1,6.05223E-2,1.3412707E-2,2.951666E-1,1.44715775E-2,6.1209925E-2,3.5437133E-2,-1.0973679E-1,1.1273929E-2,5.9952486E-2,1.1989428E-2,6.039482E-2,-1.1025081E-1,5.896783E-2,5.370614E-2,-1.1060859E-1],"split_indices":[8,8,10,8,3,5,0,0,3,2,3,5,0,6,0,10,2,0,0,0,0,2,0,0,0,0,0,0,0],"split_type":[0,0,0,0,0,0,0,0,0,0,0,0,0,0,0,0,0,0,0,0,0,0,0,0,0,0,0,0,0],"sum_hessian":[4.3494634E3,2.1129407E3,2.2365227E3,1.807504E3,3.0543668E2,1.5043993E3,7.3212335E2,1.6572184E3,1.502856E2,1.2664269E2,1.7879399E2,1.3591023E3,1.4529703E2,5.070826E1,9.957735E1,4.7603703E1,7.903899E1,1.3099382E0,1.7748404E2,1.2964674E0,1.3578058E3,1.5882704E1,3.4825558E1,1.1087286E0,4.6494972E1,5.725157E1,2.1787416E1,6.5295987E0,9.353106E0],"tree_param":{"num_deleted":"0","num_feature":"16","num_nodes":"29","size_leaf_vector":"1"}},{"base_weights":[9.967037E-2,1.1013852E0,-8.227864E-1,1.1932827E0,5.660752E-1,-1.7655648E0,6.0767572E-2,6.072823E-2,9.54194E-1,-3.3916345E-1,1.2004569E0,6.044456E-2,-2.067031E0,4.4414383E-1,5.9819598E-2,5.977909E-2,-1.2068386E0,3.4819517E-1,6.0522743E-2,-1.03484765E-1,3.2795932E-2,-1.0187979E0,5.917303E-2,-1.0390879E-1,5.8255997E-2,-1.20821195E-2,3.5847213E-2,5.192357E-2,-1.05283335E-1],"categories":[],"categories_nodes":[],"categories_segments":[],"categories_sizes":[],"default_left":[0,0,0,0,0,0,0,0,0,0,0,0,0,0,0,0,0,0,0,0,0,0,0,0,0,0,0,0,0],"id":7,"left_children":[1,3,5,7,9,11,-1,-1,13,15,17,-1,19,21,-1,-1,23,25,-1,-1,-1,27,-1,-1,-1,-1,-1,-1,-1],"loss_changes":[3.9498855E3,1.0013281E2,4.278266E3,7.73584E0,1.7392215E2,1.367249E3,0E0,0E0,1.7695435E1,1.6826941E2,1.0941772E0,0E0,1.1385742E1,5.4305893E1,0E0,0E0,1.6885631E2,9.2716515E-1,0E0,0E0,0E0,4.024093E1,0E0,0E0,0E0,0E0,0E0,0E0,0E0],"parents":[2147483647,0,0,1,1,2,2,3,3,4,4,5,5,8,8,9,9,10,10,12,12,13,13,16,16,17,17,21,21],"right_children":[2,4,6,8,10,12,-1,-1,14,16,18,-1,20,22,-1,-1,24,26,-1,-1,-1,28,-1,-1,-1,-1,-1,-1,-1],"split_conditions":[6.1944413E-1,5.309648E-1,2.8493954E-3,4.8647442E-1,1.6267283E-1,5.0643127E-2,6.0767572E-2,6.072823E-2,7.782244E-2,1.1273929E-2,1.6884725E-1,6.044456E-2,5.2456595E-3,4.3973008E-1,5.9819598E-2,5.977909E-2,2.951666E-1,3.4444812E-1,6.0522743E-2,-1.03484765E-1,3.2795932E-2,1.1273929E-2,5.917303E-2,-1.0390879E-1,5.8255997E-2,-1.20821195E-2,3.5847213E-2,5.192357E-2,-1.05283335E-1],"split_indices":[8,8,10,8,3,0,0,0,3,2,3,0,13,6,0,0,2,11,0,0,0,2,0,0,0,0,0,0,0],"split_type":[0,0,0,0,0,0,0,0,0,0,0,0,0,0,0,0,0,0,0,0,0,0,0,0,0,0,0,0,0],"sum_hessian":[4.2726084E3,2.048215E3,2.224393E3,1.7470647E3,3.0115048E2,1.5209728E3,7.034204E2,1.6005187E3,1.4654602E2,1.2427711E2,1.7687338E2,1.3969025E2,1.3812825E3,4.809514E1,9.845088E1,4.474831E1,7.952879E1,2.4662704E0,1.744071E2,1.380172E3,1.1105907E0,1.6019037E1,3.2076103E1,5.825333E1,2.1275463E1,1.0813229E0,1.3849475E0,5.55287E0,1.0466167E1],"tree_param":{"num_deleted":"0","num_feature":"16","num_nodes":"29","size_leaf_vector":"1"}},{"base_weights":[9.841922E-2,-7.130292E-1,6.018835E-2,1.1518375E0,-1.5826199E0,5.9972294E-2,1.0744334E-1,1.1900876E0,-1.9439273E0,5.7682958E-2,-1.7947898E0,5.9938252E-2,6.239612E-1,5.382811E-2,-1.961954E0,-2.0252747E-2,-9.5424466E-2,-3.963622E-3,4.4066608E-2,-9.834313E-2,4.2081885E-2],"categories":[],"categories_nodes":[],"categories_segments":[],"categories_sizes":[],"default_left":[0,0,0,0,0,0,0,0,0,0,0,0,0,0,0,0,0,0,0,0,0],"id":8,"left_children":[1,3,-1,5,7,-1,9,11,13,-1,15,-1,17,-1,19,-1,-1,-1,-1,-1,-1],"loss_changes":[3.733606E3,3.8946772E3,0E0,3.785736E1,1.6428076E3,0E0,7.054265E1,1.8249512E-1,8.101709E1,0E0,1.2178459E0,0E0,9.648458E-1,0E0,2.1483887E1,0E0,0E0,0E0,0E0,0E0,0E0],"parents":[2147483647,0,0,1,1,3,3,4,4,6,6,7,7,8,8,10,10,12,12,14,14],"right_children":[2,4,-1,6,8,-1,10,12,14,-1,16,-1,18,-1,20,-1,-1,-1,-1,-1,-1],"split_conditions":[7.498345E-4,6.933172E-2,6.018835E-2,5.2882796E-3,6.4451896E-2,5.9972294E-2,4.98217E-1,4.482955E-2,4.685342E-1,5.7682958E-2,8.802703E-2,5.9938252E-2,1.042578E-1,5.382811E-2,2.8493954E-3,-2.0252747E-2,-9.5424466E-2,-3.963622E-3,4.4066608E-2,-9.834313E-2,4.2081885E-2],"split_indices":[4,0,0,0,5,0,8,5,8,0,3,0,14,0,10,0,0,0,0,0,0],"split_type":[0,0,0,0,0,0,0,0,0,0,0,0,0,0,0,0,0,0,0,0,0],"sum_hessian":[4.1606816E3,2.3995208E3,1.7611608E3,7.629735E2,1.6365471E3,7.29568E2,3.340555E1,1.884062E2,1.448141E3,2.1805944E1,1.1599603E1,1.8446133E2,3.9448643E0,8.243066E0,1.4398978E3,1.2222844E0,1.0377318E1,1.2423342E0,2.70253E0,1.4376793E3,2.2186215E0],"tree_param":{"num_deleted":"0","num_feature":"16","num_nodes":"21","size_leaf_vector":"1"}},{"base_weights":[1.0604205E-1,-6.809658E-1,5.959023E-2,-1.4275247E0,5.9548136E-2,1.1521066E0,-1.7688941E0,5.935638E-2,4.1966978E-1,-5.866375E-2,-1.8407646E0,5.253316E-2,-5.8816653E-2,1.1278821E0,-1.1716139E0,3.9064237E-1,-1.8538417E0,5.759846E-2,1.222539E-2,8.933661E-1,-1.6232641E0,9.1682106E-1,-4.868461E-2,-1.8573744E0,2.5706008E-2,4.8549816E-2,1.1984405E-2,-9.7495643E-4,-8.503504E-2,1.2237785E-2,4.9744543E-2,2.866894E-3,-9.310307E-2],"categories":[],"categories_nodes":[],"categories_segments":[],"categories_sizes":[],"default_left":[0,0,0,0,0,0,0,0,0,0,0,0,0,0,0,0,0,0,0,0,0,0,0,0,0,0,0,0,0,0,0,0,0],"id":9,"left_children":[1,3,-1,5,-1,7,9,-1,11,13,15,-1,-1,17,19,21,23,-1,-1,25,27,29,-1,31,-1,-1,-1,-1,-1,-1,-1,-1,-1],"loss_changes":[3.452912E3,3.2757944E3,0E0,1.4773257E3,0E0,4.5394287E0,1.817959E2,0E0,1.181896E1,8.15016E1,4.2165527E1,0E0,0E0,3.5446167E-1,3.1127377E1,7.4257774E0,1.2768555E1,0E0,0E0,8.9784145E-2,3.2534943E0,1.2810612E-1,0E0,1.2761719E1,0E0,0E0,0E0,0E0,0E0,0E0,0E0,0E0,0E0],"parents":[2147483647,0,0,1,1,3,3,5,5,6,6,8,8,9,9,10,10,13,13,14,14,15,15,16,16,19,19,20,20,21,21,23,23],"right_children":[2,4,-1,6,-1,8,10,-1,12,14,16,-1,-1,18,20,22,24,-1,-1,26,28,30,-1,32,-1,-1,-1,-1,-1,-1,-1,-1,-1],"split_conditions":[7.498345E-4,4.154549E-3,5.959023E-2,1.1273929E-2,5.9548136E-2,6.4451896E-2,6.012308E-2,5.935638E-2,1.5295243E-1,4.610379E-1,2.3142123E-3,5.253316E-2,-5.8816653E-2,4.417396E-1,6.740575E-2,6.713614E-1,2.8563154E-1,5.759846E-2,1.222539E-2,6.5171903E-1,3.223868E-3,1.1112021E-1,-4.868461E-2,1.3978444E-1,2.5706008E-2,4.8549816E-2,1.1984405E-2,-9.7495643E-4,-8.503504E-2,1.2237785E-2,4.9744543E-2,2.866894E-3,-9.310307E-2],"split_indices":[4,12,0,2,0,5,11,0,3,6,3,0,0,6,3,6,2,0,0,6,11,2,0,6,0,0,0,0,0,0,0,0,0],"split_type":[0,0,0,0,0,0,0,0,0,0,0,0,0,0,0,0,0,0,0,0,0,0,0,0,0,0,0,0,0,0,0,0,0],"sum_hessian":[4.03889E3,2.3418142E3,1.6970757E3,1.6743075E3,6.675067E2,1.953942E2,1.4789132E3,1.8588544E2,9.508761E0,5.9716488E1,1.4191968E3,7.0594416E0,2.44932E0,2.8896135E1,3.0820354E1,8.100465E0,1.4110963E3,2.7833149E1,1.0629855E0,5.3556933E0,2.546466E1,6.0826116E0,2.0178535E0,1.4092095E3,1.8867865E0,4.3532677E0,1.0024257E0,1.2305697E0,2.423409E1,1.0634E0,5.0192113E0,3.4136755E0,1.4057959E3],"tree_param":{"num_deleted":"0","num_feature":"16","num_nodes":"33","size_leaf_vector":"1"}},{"base_weights":[9.94587E-2,-6.6762286E-1,5.903196E-2,1.1249756E0,-1.4623924E0,5.8758367E-2,9.458311E-2,1.1364981E0,-1.7902075E0,5.652237E-2,-1.4801619E0,5.8764536E-2,3.681355E-1,4.276329E-2,-1.7954125E0,-8.508797E-2,3.0591799E-2,4.970833E-2,-4.9981833E-1,-1.7976825E0,3.0745674E-2,-6.93002E-2,3.7554715E-2,-6.228664E-1,-8.998258E-2,-1.3424902E-3,-4.3799657E-2],"categories":[],"categories_nodes":[],"categories_segments":[],"categories_sizes":[],"default_left":[0,0,0,0,0,0,0,0,0,0,0,0,0,0,0,0,0,0,0,0,0,0,0,0,0,0,0],"id":10,"left_children":[1,3,-1,5,7,-1,9,11,13,-1,15,-1,17,-1,19,-1,-1,-1,21,23,-1,-1,-1,25,-1,-1,-1],"loss_changes":[3.2500823E3,3.267743E3,0E0,3.633661E1,1.3555571E3,0E0,5.6844963E1,4.8897095E0,2.0966797E1,0E0,7.4633675E0,0E0,5.951171E0,0E0,8.8125E0,0E0,0E0,0E0,6.441478E0,2.1357422E0,0E0,0E0,0E0,5.625465E-1,0E0,0E0,0E0],"parents":[2147483647,0,0,1,1,3,3,4,4,6,6,7,7,8,8,10,10,12,12,14,14,18,18,19,19,23,23],"right_children":[2,4,-1,6,8,-1,10,12,14,-1,16,-1,18,-1,20,-1,-1,-1,22,24,-1,-1,-1,26,-1,-1,-1],"split_conditions":[7.498345E-4,6.933172E-2,5.903196E-2,5.2882796E-3,1.1273929E-2,5.8758367E-2,2.1590246E-1,6.4451896E-2,2.3625253E-2,5.652237E-2,2.8493954E-3,5.8764536E-2,2.102204E-1,4.276329E-2,2.8493954E-3,-8.508797E-2,3.0591799E-2,4.970833E-2,2.8493954E-3,7.458719E-2,3.0745674E-2,-6.93002E-2,3.7554715E-2,2.3004915E-1,-8.998258E-2,-1.3424902E-3,-4.3799657E-2],"split_indices":[4,0,0,0,2,0,2,5,11,0,10,0,11,0,10,0,0,0,10,0,0,0,0,2,0,0,0],"split_type":[0,0,0,0,0,0,0,0,0,0,0,0,0,0,0,0,0,0,0,0,0,0,0,0,0,0,0],"sum_hessian":[3.9168635E3,2.2914768E3,1.6253866E3,7.037522E2,1.5877247E3,6.709299E2,3.282232E1,1.7756187E2,1.4101628E3,1.9968933E1,1.2853387E1,1.6852394E2,9.037925E0,2.4484148E0,1.4077144E3,1.1790955E1,1.0624324E0,5.1662426E0,3.871682E0,1.4066439E3,1.0705217E0,2.203008E0,1.668674E0,2.8846393E0,1.4037593E3,1.1896176E0,1.6950217E0],"tree_param":{"num_deleted":"0","num_feature":"16","num_nodes":"27","size_leaf_vector":"1"}},{"base_weights":[1.082287E-1,-6.3200647E-1,5.8511205E-2,1.1207683E0,-1.3967968E0,5.8357652E-2,1.08902894E-1,1.123661E0,-1.7207202E0,5.5861026E-2,-1.5651684E0,5.824968E-2,3.3334443E-1,4.7989517E-2,-1.7298311E0,-8.344388E-2,-1.7401773E-2,-5.2118998E-2,5.1803287E-2,-8.653911E-2,-1.6159317E-2],"categories":[],"categories_nodes":[],"categories_segments":[],"categories_sizes":[],"default_left":[0,0,0,0,0,0,0,0,0,0,0,0,0,0,0,0,0,0,0,0,0],"id":11,"left_children":[1,3,-1,5,7,-1,9,11,13,-1,15,-1,17,-1,19,-1,-1,-1,-1,-1,-1],"loss_changes":[2.9736204E3,2.9896475E3,0E0,3.1680908E1,1.2693394E3,0E0,5.3752018E1,5.4062653E0,3.526416E1,0E0,9.335556E-1,0E0,1.0957339E1,0E0,1.2753906E0,0E0,0E0,0E0,0E0,0E0,0E0],"parents":[2147483647,0,0,1,1,3,3,4,4,6,6,7,7,8,8,10,10,12,12,14,14],"right_children":[2,4,-1,6,8,-1,10,12,14,-1,16,-1,18,-1,20,-1,-1,-1,-1,-1,-1],"split_conditions":[7.498345E-4,6.933172E-2,5.8511205E-2,5.2882796E-3,1.1273929E-2,5.8357652E-2,4.98217E-1,6.4451896E-2,4.685342E-1,5.5861026E-2,6.1498445E-1,5.824968E-2,6.846183E-2,4.7989517E-2,4.5245188E-1,-8.344388E-2,-1.7401773E-2,-5.2118998E-2,5.1803287E-2,-8.653911E-2,-1.6159317E-2],"split_indices":[4,0,0,0,2,0,8,5,8,0,8,0,14,0,14,0,0,0,0,0,0],"split_type":[0,0,0,0,0,0,0,0,0,0,0,0,0,0,0,0,0,0,0,0,0],"sum_hessian":[3.7806836E3,2.2280715E3,1.552612E3,6.7670605E2,1.5513654E3,6.468983E2,2.9807774E1,1.763912E2,1.3749741E3,1.8810541E1,1.09972315E1,1.6717413E2,9.217073E0,4.3041315E0,1.37067E3,9.791744E0,1.2054875E0,2.9528677E0,6.264206E0,1.3695137E3,1.1564105E0],"tree_param":{"num_deleted":"0","num_feature":"16","num_nodes":"21","size_leaf_vector":"1"}},{"base_weights":[1.0749059E-1,-6.164784E-1,5.802408E-2,1.1119407E0,-1.3542163E0,5.7861425E-2,1.2496899E-1,1.1179117E0,-1.6606622E0,5.5325575E-2,-1.5057126E0,9.339854E-1,5.768266E-2,4.746603E-2,-1.6693894E0,-1.75894E-2,-8.00316E-2,5.6427103E-2,-8.1015533E-1,-8.351558E-2,-1.5718248E-2,-5.634082E-2,-1.7623606E-3],"categories":[],"categories_nodes":[],"categories_segments":[],"categories_sizes":[],"default_left":[0,0,0,0,0,0,0,0,0,0,0,0,0,0,0,0,0,0,0,0,0,0,0],"id":12,"left_children":[1,3,-1,5,7,-1,9,11,13,-1,15,17,-1,-1,19,-1,-1,-1,21,-1,-1,-1,-1],"loss_changes":[2.814771E3,2.7915806E3,0E0,2.9137085E1,1.1639617E3,0E0,4.9462826E1,3.8604736E-2,3.2681396E1,0E0,7.123127E-1,1.2070278E1,0E0,0E0,1.1755371E0,0E0,0E0,0E0,9.127059E-1,0E0,0E0,0E0,0E0],"parents":[2147483647,0,0,1,1,3,3,4,4,6,6,7,7,8,8,10,10,11,11,14,14,18,18],"right_children":[2,4,-1,6,8,-1,10,12,14,-1,16,18,-1,-1,20,-1,-1,-1,22,-1,-1,-1,-1],"split_conditions":[7.498345E-4,6.933172E-2,5.802408E-2,5.2882796E-3,1.1273929E-2,5.7861425E-2,4.98217E-1,2.8493954E-3,4.685342E-1,5.5325575E-2,8.5279725E-2,6.693374E-1,5.768266E-2,4.746603E-2,4.5245188E-1,-1.75894E-2,-8.00316E-2,5.6427103E-2,3.8632554E-1,-8.351558E-2,-1.5718248E-2,-5.634082E-2,-1.7623606E-3],"split_indices":[4,0,0,0,2,0,8,10,8,0,3,8,0,0,14,0,0,0,0,0,0,0,0],"split_type":[0,0,0,0,0,0,0,0,0,0,0,0,0,0,0,0,0,0,0,0,0,0,0],"sum_hessian":[3.6903738E3,2.1870874E3,1.5032864E3,6.54104E2,1.5329835E3,6.2524194E2,2.8862072E1,1.6877905E2,1.3642045E3,1.8217817E1,1.0644256E1,3.187608E1,1.3690297E2,4.187219E0,1.3600172E3,1.166722E0,9.477533E0,2.8994707E1,2.8813708E0,1.3588597E3,1.1574512E0,1.723106E0,1.1582649E0],"tree_param":{"num_deleted":"0","num_feature":"16","num_nodes":"23","size_leaf_vector":"1"}},{"base_weights":[1.0233479E-1,1.0407736E0,-6.662125E-1,1.1303784E0,5.2827275E-1,-1.3989457E0,5.7504334E-2,5.7396393E-2,9.0706676E-1,-2.6270768E-1,1.1325786E0,-1.612332E0,5.7144146E-2,4.6976057E-1,5.6191444E-2,5.6124415E-2,-9.749723E-1,3.1054854E-1,5.72047E-2,3.1030348E-2,-8.0734454E-2,1.0377268E0,-5.945905E-1,-8.002187E-2,5.4314252E-2,-1.157227E-2,3.2696795E-2,5.510394E-2,1.317996E-2,-1.1773614E0,4.4489827E-2,-7.329879E-2,3.0399466E-2],"categories":[],"categories_nodes":[],"categories_segments":[],"categories_sizes":[],"default_left":[0,0,0,0,0,0,0,0,0,0,0,0,0,0,0,0,0,0,0,0,0,0,0,0,0,0,0,0,0,0,0,0,0],"id":13,"left_children":[1,3,5,7,9,11,-1,-1,13,15,17,19,-1,21,-1,-1,23,25,-1,-1,-1,27,29,-1,-1,-1,-1,-1,-1,31,-1,-1,-1],"loss_changes":[2.573456E3,7.317517E1,2.6123716E3,4.314087E0,1.1546964E2,7.6024414E2,0E0,0E0,9.361885E0,1.048558E2,9.3948364E-1,7.793457E0,0E0,2.2557655E1,0E0,0E0,9.197238E1,7.584862E-1,0E0,0E0,0E0,9.065914E-1,1.2522142E1,0E0,0E0,0E0,0E0,0E0,0E0,6.021099E0,0E0,0E0,0E0],"parents":[2147483647,0,0,1,1,2,2,3,3,4,4,5,5,8,8,9,9,10,10,11,11,13,13,16,16,17,17,21,21,22,22,29,29],"right_children":[2,4,6,8,10,12,-1,-1,14,16,18,20,-1,22,-1,-1,24,26,-1,-1,-1,28,30,-1,-1,-1,-1,-1,-1,32,-1,-1,-1],"split_conditions":[6.1944413E-1,5.309648E-1,2.8493954E-3,4.9055296E-1,1.6267283E-1,3.762596E-1,5.7504334E-2,5.7396393E-2,7.782244E-2,5.44887E-2,1.6884725E-1,4.4069067E-3,5.7144146E-2,3.2443553E-2,5.6191444E-2,5.6124415E-2,2.951666E-1,2.550029E-1,5.72047E-2,3.1030348E-2,-8.0734454E-2,1.8557614E-2,3.2288316E-1,-8.002187E-2,5.4314252E-2,-1.157227E-2,3.2696795E-2,5.510394E-2,1.317996E-2,1.8845516E-1,4.4489827E-2,-7.329879E-2,3.0399466E-2],"split_indices":[8,8,10,8,3,5,0,0,3,5,3,5,0,3,0,0,2,0,0,0,0,3,11,0,0,0,0,0,0,0,0,0,0],"split_type":[0,0,0,0,0,0,0,0,0,0,0,0,0,0,0,0,0,0,0,0,0,0,0,0,0,0,0,0,0,0,0,0,0],"sum_hessian":[3.5661646E3,1.6054576E3,1.9607069E3,1.3655089E3,2.3994879E2,1.3972548E3,5.634521E2,1.2621765E3,1.03332405E2,1.04167915E2,1.3578088E2,1.2893773E3,1.0787743E2,3.5294586E1,6.803782E1,3.5178204E1,6.8989716E1,2.2621744E0,1.335187E2,1.0830956E0,1.2882943E3,2.3030115E1,1.226447E1,5.3100525E1,1.5889189E1,1.0037979E0,1.2583764E0,2.0871462E1,2.1586533E0,8.955409E0,3.3090603E0,7.863161E0,1.0922486E0],"tree_param":{"num_deleted":"0","num_feature":"16","num_nodes":"33","size_leaf_vector":"1"}},{"base_weights":[9.9563956E-2,-5.9011567E-1,5.7144076E-2,1.0878205E0,-1.2756793E0,5.688988E-2,6.8029866E-2,1.1001247E0,-1.5604566E0,5.4204732E-2,-1.335838E0,5.6855965E-2,3.4971106E-1,3.9799113E-2,-1.5647602E0,-1.016481E-2,-7.257048E-2,-4.839625E-2,4.9690474E-2,-4.7636902E-1,-7.833733E-2,2.2920077E-3,-3.685559E-2],"categories":[],"categories_nodes":[],"categories_segments":[],"categories_sizes":[],"default_left":[0,0,0,0,0,0,0,0,0,0,0,0,0,0,0,0,0,0,0,0,0,0,0],"id":14,"left_children":[1,3,-1,5,7,-1,9,11,13,-1,15,-1,17,-1,19,-1,-1,-1,-1,21,-1,-1,-1],"loss_changes":[2.4886858E3,2.396732E3,0E0,3.0733582E1,1.0022136E3,0E0,4.3251255E1,4.0126953E0,1.4640869E1,0E0,1.3741589E0,0E0,8.522172E0,0E0,2.1047363E0,0E0,0E0,0E0,0E0,5.56557E-1,0E0,0E0,0E0],"parents":[2147483647,0,0,1,1,3,3,4,4,6,6,7,7,8,8,10,10,12,12,14,14,19,19],"right_children":[2,4,-1,6,8,-1,10,12,14,-1,16,-1,18,-1,20,-1,-1,-1,-1,22,-1,-1,-1],"split_conditions":[7.498345E-4,6.933172E-2,5.7144076E-2,5.2882796E-3,1.1273929E-2,5.688988E-2,5.2126664E-1,6.4451896E-2,2.0177666E-2,5.4204732E-2,2.3004915E-1,5.6855965E-2,6.846183E-2,3.9799113E-2,7.458719E-2,-1.016481E-2,-7.257048E-2,-4.839625E-2,4.9690474E-2,2.3004915E-1,-7.833733E-2,2.2920077E-3,-3.685559E-2],"split_indices":[4,0,0,0,2,0,6,5,11,0,2,0,14,0,0,0,0,0,0,2,0,0,0],"split_type":[0,0,0,0,0,0,0,0,0,0,0,0,0,0,0,0,0,0,0,0,0,0,0],"sum_hessian":[3.4567092E3,2.0813066E3,1.3754026E3,6.035397E2,1.477767E3,5.752334E2,2.8306278E1,1.5786743E2,1.3198995E3,1.6553373E1,1.1752906E1,1.4995927E2,7.908157E0,2.0708058E0,1.3178287E3,1.3437647E0,1.0409142E1,2.4314222E0,5.4767346E0,2.8392982E0,1.3149894E3,1.2200354E0,1.6192627E0],"tree_param":{"num_deleted":"0","num_feature":"16","num_nodes":"23","size_leaf_vector":"1"}},{"base_weights":[9.958669E-2,-5.7753146E-1,5.6743275E-2,-1.1821382E0,5.669724E-2,5.4272722E-2,-1.4401996E0,5.584064E-2,-1.5247651E0,-1.5261775E0,3.1279966E-3,-1.8018087E-2,-7.6340966E-2],"categories":[],"categories_nodes":[],"categories_segments":[],"categories_sizes":[],"default_left":[0,0,0,0,0,0,0,0,0,0,0,0,0],"id":15,"left_children":[1,3,-1,5,-1,-1,7,-1,9,11,-1,-1,-1],"loss_changes":[2.3334875E3,2.0839192E3,0E0,8.7213745E2,0E0,0E0,2.9062036E2,0E0,2.9960938E0,4.1723633E-1,0E0,0E0,0E0],"parents":[2147483647,0,0,1,1,3,3,6,6,8,8,9,9],"right_children":[2,4,-1,6,-1,-1,8,-1,10,12,-1,-1,-1],"split_conditions":[7.498345E-4,4.154549E-3,5.6743275E-2,1.1273929E-2,5.669724E-2,5.4272722E-2,4.685342E-1,5.584064E-2,5.230452E-1,3.223868E-3,3.1279966E-3,-1.8018087E-2,-7.6340966E-2],"split_indices":[4,12,0,2,0,0,8,0,14,11,0,0,0],"split_type":[0,0,0,0,0,0,0,0,0,0,0,0,0],"sum_hessian":[3.3268345E3,2.0116007E3,1.3152336E3,1.4867068E3,5.24894E2,1.5157828E2,1.3351284E3,4.2351036E1,1.2927775E3,1.2916666E3,1.1108452E0,1.0201304E0,1.2906465E3],"tree_param":{"num_deleted":"0","num_feature":"16","num_nodes":"13","size_leaf_vector":"1"}},{"base_weights":[8.770954E-2,1.0399231E0,-6.161517E-1,1.120153E0,6.5598303E-1,-1.2739497E0,5.6301296E-2,5.6375533E-2,9.728565E-1,1.572042E-2,1.1039028E0,-1.4837214E0,5.5972513E-2,6.635238E-1,5.511858E-2,1.0853962E0,-6.306443E-1,5.0403184E-1,5.6032714E-2,3.1939328E-2,-7.4315935E-2,5.3060602E-2,-7.738578E-1,5.498779E-2,1.5085456E-2,5.3462088E-2,-1.2117745E0,-3.1076787E-2,4.4564683E-2,-6.958047E-2,3.1236423E-2,-7.500289E-2,4.7446467E-2],"categories":[],"categories_nodes":[],"categories_segments":[],"categories_sizes":[],"default_left":[0,0,0,0,0,0,0,0,0,0,0,0,0,0,0,0,0,0,0,0,0,0,0,0,0,0,0,0,0,0,0,0,0],"id":16,"left_children":[1,3,5,7,9,11,-1,-1,13,15,17,19,-1,21,-1,23,25,27,-1,-1,-1,-1,29,-1,-1,-1,31,-1,-1,-1,-1,-1,-1],"loss_changes":[2.1613503E3,4.14834E1,2.1264473E3,1.3012695E-1,6.8613525E1,6.7770557E2,0E0,0E0,1.7187271E0,6.949252E1,8.4991455E-1,7.7768555E0,0E0,1.2574584E1,0E0,9.41658E-2,6.320168E1,3.0133328E0,0E0,0E0,0E0,0E0,5.218834E0,0E0,0E0,0E0,3.0805557E1,0E0,0E0,0E0,0E0,0E0,0E0],"parents":[2147483647,0,0,1,1,2,2,3,3,4,4,5,5,8,8,9,9,10,10,11,11,13,13,15,15,16,16,17,17,22,22,26,26],"right_children":[2,4,6,8,10,12,-1,-1,14,16,18,20,-1,22,-1,24,26,28,-1,-1,-1,-1,30,-1,-1,-1,32,-1,-1,-1,-1,-1,-1],"split_conditions":[6.0120106E-1,4.98217E-1,2.8493954E-3,4.7339067E-1,1.5148434E-1,3.762596E-1,5.6301296E-2,5.6375533E-2,6.740575E-2,2.318166E-2,1.6884725E-1,4.4069067E-3,5.5972513E-2,3.2443553E-2,5.511858E-2,1.8557614E-2,1.1273929E-2,2.7459663E-1,5.6032714E-2,3.1939328E-2,-7.4315935E-2,5.3060602E-2,3.059966E-1,5.498779E-2,1.5085456E-2,5.3462088E-2,2.951666E-1,-3.1076787E-2,4.4564683E-2,-6.958047E-2,3.1236423E-2,-7.500289E-2,4.7446467E-2],"split_indices":[8,8,10,8,3,5,0,0,3,3,3,5,0,3,0,3,2,11,0,0,0,0,11,0,0,0,2,0,0,0,0,0,0],"split_type":[0,0,0,0,0,0,0,0,0,0,0,0,0,0,0,0,0,0,0,0,0,0,0,0,0,0,0,0,0,0,0,0,0],"sum_hessian":[3.2228516E3,1.3695663E3,1.8532852E3,1.1312561E3,2.3831012E2,1.345522E3,5.0776318E2,1.0710985E3,6.0157684E1,9.851975E1,1.3979036E2,1.2374452E3,1.0807686E2,1.9561136E1,4.059655E1,3.6852665E1,6.1667088E1,4.6421704E0,1.351482E2,1.2130286E0,1.2362322E3,1.5526921E1,4.0342145E0,3.5793507E1,1.0591592E0,1.5496817E1,4.6170273E1,1.0334685E0,3.608702E0,2.8016996E0,1.2325146E0,4.100509E1,5.1651845E0],"tree_param":{"num_deleted":"0","num_feature":"16","num_nodes":"33","size_leaf_vector":"1"}},{"base_weights":[8.9336425E-2,-5.6194323E-1,5.6016024E-2,1.0657036E0,-1.1866037E0,5.5641886E-2,9.144583E-2,1.0626531E0,-1.4438474E0,5.26928E-2,-1.2661254E0,5.5702515E-2,1.8879E-1,4.464974E-2,-1.4513814E0,-6.9785975E-2,-1.1639724E-4,8.4018373E-1,-5.7715524E-2,-7.261487E-2,-1.0411027E-2,7.861106E-3,4.7093365E-2],"categories":[],"categories_nodes":[],"categories_segments":[],"categories_sizes":[],"default_left":[0,0,0,0,0,0,0,0,0,0,0,0,0,0,0,0,0,0,0,0,0,0,0],"id":17,"left_children":[1,3,-1,5,7,-1,9,11,13,-1,15,-1,17,-1,19,-1,-1,21,-1,-1,-1,-1,-1],"loss_changes":[2.0784995E3,1.9301808E3,0E0,2.4084412E1,7.9508716E2,0E0,3.451382E1,6.137497E0,2.2971436E1,0E0,1.7965298E0,0E0,8.891856E0,0E0,1.095459E0,0E0,0E0,3.1556416E-1,0E0,0E0,0E0,0E0,0E0],"parents":[2147483647,0,0,1,1,3,3,4,4,6,6,7,7,8,8,10,10,12,12,14,14,17,17],"right_children":[2,4,-1,6,8,-1,10,12,14,-1,16,-1,18,-1,20,-1,-1,22,-1,-1,-1,-1,-1],"split_conditions":[7.498345E-4,6.933172E-2,5.6016024E-2,5.2882796E-3,1.1273929E-2,5.5641886E-2,4.98217E-1,6.4451896E-2,4.685342E-1,5.26928E-2,3.4048256E-1,5.5702515E-2,1.5295243E-1,4.464974E-2,3.627018E-1,-6.9785975E-2,-1.1639724E-4,5.937402E-2,-5.7715524E-2,-7.261487E-2,-1.0411027E-2,7.861106E-3,4.7093365E-2],"split_indices":[4,0,0,0,2,0,8,5,8,0,5,0,3,0,5,0,0,14,0,0,0,0,0],"split_type":[0,0,0,0,0,0,0,0,0,0,0,0,0,0,0,0,0,0,0,0,0,0,0],"sum_hessian":[3.09356E3,1.8961831E3,1.197377E3,5.256962E2,1.3704869E3,5.0130133E2,2.4394932E1,1.4033266E2,1.2301542E3,1.4405966E1,9.988966E0,1.3227776E2,8.054909E0,3.5755877E0,1.2265786E3,8.965254E0,1.0237128E0,5.6763606E0,2.3785481E0,1.2255074E3,1.0711906E0,1.065575E0,4.6107855E0],"tree_param":{"num_deleted":"0","num_feature":"16","num_nodes":"23","size_leaf_vector":"1"}},{"base_weights":[9.45993E-2,-5.5026627E-1,5.56836E-2,-1.1096058E0,5.5632867E-2,1.0931162E0,-1.3388326E0,5.5129092E-2,5.0657312E-3,5.469645E-2,-1.416828E0,-1.4192806E0,3.157971E-2,-7.1066074E-2,-2.4698337E-3],"categories":[],"categories_nodes":[],"categories_segments":[],"categories_sizes":[],"default_left":[0,0,0,0,0,0,0,0,0,0,0,0,0,0,0],"id":18,"left_children":[1,3,-1,5,-1,7,9,-1,-1,-1,11,13,-1,-1,-1],"loss_changes":[1.9690347E3,1.7081735E3,0E0,6.9509753E2,0E0,1.1090851E0,2.3772632E2,0E0,0E0,0E0,6.9577637E0,3.2995605E0,0E0,0E0,0E0],"parents":[2147483647,0,0,1,1,3,3,5,5,6,6,10,10,11,11],"right_children":[2,4,-1,6,-1,8,10,-1,-1,-1,12,14,-1,-1,-1],"split_conditions":[7.498345E-4,4.154549E-3,5.56836E-2,6.4451896E-2,5.5632867E-2,7.211746E-2,4.685342E-1,5.5129092E-2,5.0657312E-3,5.469645E-2,9.4904564E-4,3.627018E-1,3.157971E-2,-7.1066074E-2,-2.4698337E-3],"split_indices":[4,12,0,5,0,2,8,0,0,0,9,5,0,0,0],"split_type":[0,0,0,0,0,0,0,0,0,0,0,0,0,0,0],"sum_hessian":[2.9943242E3,1.8341443E3,1.1601799E3,1.3727426E3,4.6140167E2,1.290346E2,1.243708E3,1.277041E2,1.3304963E0,3.8230553E1,1.2054774E3,1.2043425E3,1.1348315E0,1.2025134E3,1.8291192E0],"tree_param":{"num_deleted":"0","num_feature":"16","num_nodes":"15","size_leaf_vector":"1"}},{"base_weights":[8.6633556E-2,-5.468202E-1,5.5371482E-2,1.0461507E0,-1.1424369E0,1.0993333E0,2.2923637E-2,1.0542121E0,-1.384643E0,8.0036306E-1,5.5325974E-2,5.1914956E-2,-6.3351125E-2,5.5027574E-2,2.956379E-1,4.2892303E-2,-1.3914483E0,5.1420946E-2,-5.2695103E-2,4.658675E-2,-6.620288E-1,-6.959801E-2,-2.0811163E-2,-5.275478E-2,1.32249985E-2],"categories":[],"categories_nodes":[],"categories_segments":[],"categories_sizes":[],"default_left":[0,0,0,0,0,0,0,0,0,0,0,0,0,0,0,0,0,0,0,0,0,0,0,0,0],"id":19,"left_children":[1,3,-1,5,7,9,11,13,15,17,-1,-1,-1,-1,19,-1,21,-1,-1,-1,23,-1,-1,-1,-1],"loss_changes":[1.8601732E3,1.685553E3,0E0,2.6294128E1,6.8917737E2,1.0211182E-1,3.3951637E1,4.2070312E0,1.896753E1,7.1754284E0,0E0,0E0,0E0,0E0,5.9716163E0,0E0,2.4414062E-4,0E0,0E0,0E0,1.7696805E0,0E0,0E0,0E0,0E0],"parents":[2147483647,0,0,1,1,3,3,4,4,5,5,6,6,7,7,8,8,9,9,14,14,16,16,20,20],"right_children":[2,4,-1,6,8,10,12,14,16,18,-1,-1,-1,-1,20,-1,22,-1,-1,-1,24,-1,-1,-1,-1],"split_conditions":[7.498345E-4,6.933172E-2,5.5371482E-2,5.2882796E-3,1.1273929E-2,4.6637997E-2,4.98217E-1,6.4451896E-2,4.685342E-1,7.4700534E-1,5.5325974E-2,5.1914956E-2,-6.3351125E-2,5.5027574E-2,6.981927E-1,4.2892303E-2,7.559352E-1,5.1420946E-2,-5.2695103E-2,4.658675E-2,1.3978444E-1,-6.959801E-2,-2.0811163E-2,-5.275478E-2,1.32249985E-2],"split_indices":[4,0,0,0,2,11,8,5,8,6,0,0,0,0,8,0,6,0,0,0,6,0,0,0,0],"split_type":[0,0,0,0,0,0,0,0,0,0,0,0,0,0,0,0,0,0,0,0,0,0,0,0,0],"sum_hessian":[2.874796E3,1.7742509E3,1.100545E3,4.8265045E2,1.2916005E3,4.5873322E2,2.3917234E1,1.279377E2,1.1636627E3,1.3405118E1,4.453281E2,1.3492084E1,1.0425152E1,1.2014739E2,7.7903056E0,3.142359E0,1.1605204E3,1.2333589E1,1.0715299E0,4.697339E0,3.0929668E0,1.1594846E3,1.0358094E0,2.0742385E0,1.0187283E0],"tree_param":{"num_deleted":"0","num_feature":"16","num_nodes":"25","size_leaf_vector":"1"}},{"base_weights":[9.0548195E-2,-5.301107E-1,5.5077113E-2,-1.061496E0,5.5022478E-2,1.0853227E0,-1.2869252E0,5.473376E-2,1.6980372E-2,5.3972166E-2,-1.3616655E0,-1.364157E0,3.1222744E-2,-1.3652453E0,-1.350828E-2,-2.5957216E-2,-6.830673E-2],"categories":[],"categories_nodes":[],"categories_segments":[],"categories_sizes":[],"default_left":[0,0,0,0,0,0,0,0,0,0,0,0,0,0,0,0,0],"id":20,"left_children":[1,3,-1,5,-1,7,9,-1,-1,-1,11,13,-1,15,-1,-1,-1],"loss_changes":[1.7295574E3,1.4810452E3,0E0,6.250574E2,0E0,4.8609924E-1,2.0781091E2,0E0,0E0,0E0,6.4504395E0,9.7680664E-1,0E0,1.4038086E-1,0E0,0E0,0E0],"parents":[2147483647,0,0,1,1,3,3,5,5,6,6,10,10,11,11,13,13],"right_children":[2,4,-1,6,-1,8,10,-1,-1,-1,12,14,-1,16,-1,-1,-1],"split_conditions":[7.498345E-4,4.154549E-3,5.5077113E-2,6.4451896E-2,5.5022478E-2,5.44887E-2,4.685342E-1,5.473376E-2,1.6980372E-2,5.3972166E-2,8.295113E-1,3.627018E-1,3.1222744E-2,2.3142123E-3,-1.350828E-2,-2.5957216E-2,-6.830673E-2],"split_indices":[4,12,0,5,0,5,8,0,0,0,6,5,0,3,0,0,0],"split_type":[0,0,0,0,0,0,0,0,0,0,0,0,0,0,0,0,0],"sum_hessian":[2.7544128E3,1.7069658E3,1.0474469E3,1.2876733E3,4.1929248E2,1.2200209E2,1.1656713E3,1.20028786E2,1.9733026E0,3.5278217E1,1.1303931E3,1.1292896E3,1.103458E0,1.1279196E3,1.3700681E0,1.7981209E0,1.1261215E3],"tree_param":{"num_deleted":"0","num_feature":"16","num_nodes":"17","size_leaf_vector":"1"}},{"base_weights":[9.399604E-2,-5.204587E-1,5.4800387E-2,1.0385695E0,-1.104334E0,1.0874876E0,1.4073548E-1,1.0277914E0,-1.3338468E0,7.600306E-1,5.4748785E-2,5.1317323E-2,-1.0318139E0,5.4413386E-2,9.559392E-2,3.8950976E-2,-1.338738E0,5.035415E-2,-4.949547E-2,1.8022442E-2,-6.1484825E-2,-4.6773426E-2,4.499046E-2,-4.8783353E-1,-6.700166E-2,1.4329524E-3,-3.7190348E-2],"categories":[],"categories_nodes":[],"categories_segments":[],"categories_sizes":[],"default_left":[0,0,0,0,0,0,0,0,0,0,0,0,0,0,0,0,0,0,0,0,0,0,0,0,0,0,0],"id":21,"left_children":[1,3,-1,5,7,9,11,13,15,17,-1,-1,19,-1,21,-1,23,-1,-1,-1,-1,-1,-1,25,-1,-1,-1],"loss_changes":[1.6333422E3,1.4981477E3,0E0,1.9549866E1,5.8709753E2,2.1051025E-1,2.6321592E1,6.4856567E0,1.2214966E1,6.5205975E0,0E0,0E0,3.4646378E0,0E0,7.655634E0,0E0,5.3552246E-1,0E0,0E0,0E0,0E0,0E0,0E0,4.4602138E-1,0E0,0E0,0E0],"parents":[2147483647,0,0,1,1,3,3,4,4,5,5,6,6,7,7,8,8,9,9,12,12,14,14,16,16,23,23],"right_children":[2,4,-1,6,8,10,12,14,16,18,-1,-1,20,-1,22,-1,24,-1,-1,-1,-1,-1,-1,26,-1,-1,-1],"split_conditions":[7.498345E-4,6.933172E-2,5.4800387E-2,5.2882796E-3,1.1273929E-2,4.6637997E-2,5.2126664E-1,6.4451896E-2,2.3625253E-2,7.4700534E-1,5.4748785E-2,5.1317323E-2,8.248878E-2,5.4413386E-2,6.846183E-2,3.8950976E-2,2.3142123E-3,5.035415E-2,-4.949547E-2,1.8022442E-2,-6.1484825E-2,-4.6773426E-2,4.499046E-2,5.8159035E-1,-6.700166E-2,1.4329524E-3,-3.7190348E-2],"split_indices":[4,0,0,0,2,11,6,5,11,6,0,0,3,0,14,0,3,0,0,0,0,0,0,6,0,0,0],"split_type":[0,0,0,0,0,0,0,0,0,0,0,0,0,0,0,0,0,0,0,0,0,0,0,0,0,0,0],"sum_hessian":[2.6509343E3,1.6435533E3,1.00738104E3,4.4760553E2,1.1959478E3,4.2427768E2,2.3327856E1,1.15888695E2,1.0800591E3,1.1776627E1,4.1250107E2,1.336109E1,9.966766E0,1.0867123E2,7.217465E0,2.1289504E0,1.0779302E3,1.0691702E1,1.0849245E0,1.1380622E0,8.828705E0,3.0911632E0,4.126302E0,2.2123876E0,1.0757178E3,1.0273938E0,1.1849937E0],"tree_param":{"num_deleted":"0","num_feature":"16","num_nodes":"27","size_leaf_vector":"1"}},{"base_weights":[8.623442E-2,-5.2495295E-1,5.453949E-2,1.0223962E0,-1.0950572E0,1.0819082E0,5.1097658E-2,1.0245632E0,-1.3131504E0,7.288794E-1,5.448362E-2,5.131197E-2,-1.1426772E0,5.411421E-2,1.6958612E-1,3.7780825E-2,-1.3179954E0,4.9583193E-2,-4.5850035E-2,-6.365123E-2,6.774506E-3,4.3527123E-2,-5.647492E-1,-1.5647257E-2,-6.594073E-2,-5.6176137E-2,2.9792815E-2],"categories":[],"categories_nodes":[],"categories_segments":[],"categories_sizes":[],"default_left":[0,0,0,0,0,0,0,0,0,0,0,0,0,0,0,0,0,0,0,0,0,0,0,0,0,0,0],"id":22,"left_children":[1,3,-1,5,7,9,11,13,15,17,-1,-1,19,-1,21,-1,23,-1,-1,-1,-1,-1,25,-1,-1,-1,-1],"loss_changes":[1.5705273E3,1.4041514E3,0E0,2.4727386E1,5.388474E2,3.1289673E-1,3.1208591E1,5.197464E0,1.1567139E1,5.9752383E0,0E0,0E0,2.18402E0,0E0,4.6515093E0,0E0,4.5373535E-1,0E0,0E0,0E0,0E0,0E0,3.6223629E0,0E0,0E0,0E0,0E0],"parents":[2147483647,0,0,1,1,3,3,4,4,5,5,6,6,7,7,8,8,9,9,12,12,14,14,16,16,22,22],"right_children":[2,4,-1,6,8,10,12,14,16,18,-1,-1,20,-1,22,-1,24,-1,-1,-1,-1,-1,26,-1,-1,-1,-1],"split_conditions":[7.498345E-4,7.458719E-2,5.453949E-2,5.2882796E-3,1.1273929E-2,4.6637997E-2,4.98217E-1,6.4451896E-2,4.685342E-1,4.8647442E-1,5.448362E-2,5.131197E-2,6.403374E-1,5.411421E-2,5.8113605E-1,3.7780825E-2,3.1693976E-2,4.9583193E-2,-4.5850035E-2,-6.365123E-2,6.774506E-3,4.3527123E-2,9.4904564E-4,-1.5647257E-2,-6.594073E-2,-5.6176137E-2,2.9792815E-2],"split_indices":[4,0,0,0,2,11,8,5,8,8,0,0,8,0,8,0,11,0,0,0,0,0,9,0,0,0,0],"split_type":[0,0,0,0,0,0,0,0,0,0,0,0,0,0,0,0,0,0,0,0,0,0,0,0,0,0,0],"sum_hessian":[2.5560479E3,1.5894679E3,9.6658E2,4.2773557E2,1.1617323E3,4.029337E2,2.4801855E1,1.08036964E2,1.0536953E3,1.0712709E1,3.9222098E2,1.3728221E1,1.1073635E1,1.00955414E2,7.0815473E0,2.0999055E0,1.0515955E3,9.580548E0,1.1321615E0,1.0052505E1,1.0211302E0,3.5282187E0,3.5533283E0,1.1681697E0,1.0504272E3,2.420115E0,1.1332132E0],"tree_param":{"num_deleted":"0","num_feature":"16","num_nodes":"27","size_leaf_vector":"1"}},{"base_weights":[9.6054874E-2,9.9489E-1,-5.413405E-1,1.069047E0,5.6521237E-1,-1.1203271E0,5.4211956E-2,5.425067E-2,8.712774E-1,-6.273318E-2,5.373928E-2,-1.2958107E0,5.3745396E-2,4.924859E-1,5.322401E-2,-6.012494E-1,5.2115005E-2,1.6717046E-2,-6.49023E-2,5.1359233E-2,-5.6750697E-1,-6.457538E-2,5.07345E-2,-1.0110656E0,3.598472E-2,-6.625502E-3,-5.710947E-2],"categories":[],"categories_nodes":[],"categories_segments":[],"categories_sizes":[],"default_left":[0,0,0,0,0,0,0,0,0,0,0,0,0,0,0,0,0,0,0,0,0,0,0,0,0,0,0],"id":23,"left_children":[1,3,5,7,9,11,-1,-1,13,15,-1,17,-1,19,-1,21,-1,-1,-1,-1,23,-1,-1,25,-1,-1,-1],"loss_changes":[1.402318E3,3.1754211E1,1.3492078E3,1.7858887E0,4.85749E1,4.0841272E2,0E0,0E0,4.5758057E0,4.160018E1,0E0,4.0006104E0,0E0,1.4978905E1,0E0,5.365452E1,0E0,0E0,0E0,0E0,5.9579134E0,0E0,0E0,6.813998E-1,0E0,0E0,0E0],"parents":[2147483647,0,0,1,1,2,2,3,3,4,4,5,5,8,8,9,9,11,11,13,13,15,15,20,20,23,23],"right_children":[2,4,6,8,10,12,-1,-1,14,16,-1,18,-1,20,-1,22,-1,-1,-1,-1,24,-1,-1,26,-1,-1,-1],"split_conditions":[6.0120106E-1,5.176928E-1,2.8493954E-3,4.7784418E-1,1.6884725E-1,3.762596E-1,5.4211956E-2,5.425067E-2,7.782244E-2,2.8493954E-3,5.373928E-2,6.4451896E-2,5.3745396E-2,3.0324828E-2,5.322401E-2,3.627018E-1,5.2115005E-2,1.6717046E-2,-6.49023E-2,5.1359233E-2,3.1645495E-1,-6.457538E-2,5.07345E-2,7.860401E-2,3.598472E-2,-6.625502E-3,-5.710947E-2],"split_indices":[8,8,10,8,3,5,0,0,3,10,0,5,0,3,0,5,0,0,0,0,11,0,0,5,0,0,0],"split_type":[0,0,0,0,0,0,0,0,0,0,0,0,0,0,0,0,0,0,0,0,0,0,0,0,0,0,0],"sum_hessian":[2.4457566E3,1.01453296E3,1.4312238E3,8.6393964E2,1.5059334E2,1.0555697E3,3.7565405E2,7.952511E2,6.8688515E1,6.785397E1,8.273936E1,9.7781445E2,7.775517E1,2.4399717E1,4.42888E1,4.5927845E1,2.1926132E1,1.1354731E0,9.76679E2,1.6239086E1,8.160631E0,3.2322056E1,1.3605789E1,6.2287726E0,1.931858E0,1.0700173E0,5.1587553E0],"tree_param":{"num_deleted":"0","num_feature":"16","num_nodes":"27","size_leaf_vector":"1"}},{"base_weights":[8.3926044E-2,-5.118684E-1,5.4062266E-2,1.0223411E0,-1.0611727E0,1.0717947E0,9.811762E-2,-1.2262306E0,5.34839E-2,7.2895527E-1,5.3996947E-2,5.005684E-2,-1.0655357E0,-1.2668878E0,5.1559724E-2,4.922386E-2,-4.572116E-2,-5.924451E-2,-3.3058696E-3,4.569645E-2,-1.278839E0,-6.400337E-2,-1.7924963E-2],"categories":[],"categories_nodes":[],"categories_segments":[],"categories_sizes":[],"default_left":[0,0,0,0,0,0,0,0,0,0,0,0,0,0,0,0,0,0,0,0,0,0,0],"id":24,"left_children":[1,3,-1,5,7,9,11,13,-1,15,-1,-1,17,19,-1,-1,-1,-1,-1,-1,21,-1,-1],"loss_changes":[1.4019907E3,1.2459656E3,0E0,1.771817E1,3.840514E2,2.4603271E-1,2.3035637E1,9.404553E1,0E0,5.7979155E0,0E0,0E0,1.0691223E0,2.705017E1,0E0,0E0,0E0,0E0,0E0,0E0,6.5808105E-1,0E0,0E0],"parents":[2147483647,0,0,1,1,3,3,4,4,5,5,6,6,7,7,9,9,12,12,13,13,20,20],"right_children":[2,4,-1,6,8,10,12,14,-1,16,-1,-1,18,20,-1,-1,-1,-1,-1,-1,22,-1,-1],"split_conditions":[7.498345E-4,6.933172E-2,5.4062266E-2,5.2882796E-3,5.2456595E-3,4.6637997E-2,4.98217E-1,9.4904564E-4,5.34839E-2,7.4700534E-1,5.3996947E-2,5.005684E-2,9.358978E-2,4.685342E-1,5.1559724E-2,4.922386E-2,-4.572116E-2,-5.924451E-2,-3.3058696E-3,4.569645E-2,7.51429E-1,-6.400337E-2,-1.7924963E-2],"split_indices":[4,0,0,0,13,11,8,9,0,6,0,0,11,8,0,0,0,0,0,0,6,0,0],"split_type":[0,0,0,0,0,0,0,0,0,0,0,0,0,0,0,0,0,0,0,0,0,0,0],"sum_hessian":[2.3575386E3,1.4761685E3,8.813702E2,3.8895477E2,1.0872136E3,3.6904797E2,1.9906797E1,1.0094455E3,7.776816E1,1.0663401E1,3.5838458E2,1.1287288E1,8.61951E0,9.9201764E2,1.7427866E1,9.575491E0,1.0879092E0,7.5341697E0,1.0853405E0,4.9954185E0,9.870222E2,9.853162E2,1.7060046E0],"tree_param":{"num_deleted":"0","num_feature":"16","num_nodes":"23","size_leaf_vector":"1"}},{"base_weights":[8.597486E-2,9.959437E-1,-5.222425E-1,1.0685409E0,6.224584E-1,-1.0847796E0,5.375987E-2,5.3847786E-2,8.7287873E-1,5.644016E-2,5.330621E-2,-1.2601756E0,5.3313073E-2,5.394597E-1,5.168998E-2,5.1712167E-2,-4.4803652E-1,-6.30993E-2,9.032143E-3,4.8753183E-2,-5.564453E-1,5.0042488E-2,-9.799818E-1,-8.9298505E-1,1.3646828E-2,-6.374049E-2,4.362662E-2,-1.4424748E-2,-5.2722402E-2],"categories":[],"categories_nodes":[],"categories_segments":[],"categories_sizes":[],"default_left":[0,0,0,0,0,0,0,0,0,0,0,0,0,0,0,0,0,0,0,0,0,0,0,0,0,0,0,0,0],"id":25,"left_children":[1,3,5,7,9,11,-1,-1,13,15,-1,17,-1,19,-1,-1,21,-1,-1,-1,23,-1,25,27,-1,-1,-1,-1,-1],"loss_changes":[1.2474259E3,2.3816528E1,1.2152158E3,3.022461E-1,3.7442383E1,3.784994E2,0E0,0E0,1.3948345E0,3.3353844E1,0E0,2.6403809E0,0E0,7.196081E0,0E0,0E0,3.54186E1,0E0,0E0,0E0,1.5279298E0,0E0,1.9238798E1,3.8086176E-2,0E0,0E0,0E0,0E0,0E0],"parents":[2147483647,0,0,1,1,2,2,3,3,4,4,5,5,8,8,9,9,11,11,13,13,16,16,20,20,22,22,23,23],"right_children":[2,4,6,8,10,12,-1,-1,14,16,-1,18,-1,20,-1,-1,22,-1,-1,-1,24,-1,26,28,-1,-1,-1,-1,-1],"split_conditions":[5.910004E-1,4.98217E-1,2.8493954E-3,4.7784418E-1,1.6884725E-1,3.762596E-1,5.375987E-2,5.3847786E-2,6.740575E-2,2.1088073E-2,5.330621E-2,4.6594858E-1,5.3313073E-2,3.2443553E-2,5.168998E-2,5.1712167E-2,1.1273929E-2,-6.30993E-2,9.032143E-3,4.8753183E-2,4.2140555E-1,5.0042488E-2,2.951666E-1,3.8523862E-1,1.3646828E-2,-6.374049E-2,4.362662E-2,-1.4424748E-2,-5.2722402E-2],"split_indices":[8,8,10,8,3,5,0,0,3,3,0,0,0,3,0,0,2,0,0,0,6,0,2,6,0,0,0,0,0],"split_type":[0,0,0,0,0,0,0,0,0,0,0,0,0,0,0,0,0,0,0,0,0,0,0,0,0,0,0,0,0],"sum_hessian":[2.251933E3,9.019164E2,1.3500167E3,7.5357697E2,1.4833942E2,9.986602E2,3.5135648E2,7.181859E2,3.5391083E1,6.567721E1,8.26622E1,9.2375165E2,7.490858E1,1.2937544E1,2.2453539E1,2.1995073E1,4.368214E1,9.227163E2,1.0353464E0,9.336649E0,3.6008954E0,1.1493962E1,3.2188175E1,2.506956E0,1.0939394E0,2.8037804E1,4.1503725E0,1.1159152E0,1.3910409E0],"tree_param":{"num_deleted":"0","num_feature":"16","num_nodes":"29","size_leaf_vector":"1"}},{"base_weights":[8.5205264E-2,-5.011339E-1,5.3635925E-2,-9.809592E-1,5.3554803E-2,1.0470368E0,-1.1774343E0,5.2901026E-2,4.389824E-3,5.2093595E-2,-1.2422601E0,-1.244382E0,1.2219707E-2,-4.8263922E-1,-6.2327653E-2,-5.0683677E-2,3.0031962E-2],"categories":[],"categories_nodes":[],"categories_segments":[],"categories_sizes":[],"default_left":[0,0,0,0,0,0,0,0,0,0,0,0,0,0,0,0,0],"id":26,"left_children":[1,3,-1,5,-1,7,9,-1,-1,-1,11,13,-1,15,-1,-1,-1],"loss_changes":[1.2490524E3,1.02222205E3,0E0,4.1467963E2,0E0,8.783035E-1,1.3745947E2,0E0,0E0,0E0,3.206665E0,9.1796875E-1,0E0,3.0499053E0,0E0,0E0,0E0],"parents":[2147483647,0,0,1,1,3,3,5,5,6,6,10,10,11,11,13,13],"right_children":[2,4,-1,6,-1,8,10,-1,-1,-1,12,14,-1,16,-1,-1,-1],"split_conditions":[7.498345E-4,4.154549E-3,5.3635925E-2,6.4451896E-2,5.3554803E-2,7.211746E-2,4.685342E-1,5.2901026E-2,4.389824E-3,5.2093595E-2,5.230452E-1,1.1273929E-2,1.2219707E-2,5.937402E-2,-6.2327653E-2,-5.0683677E-2,3.0031962E-2],"split_indices":[4,12,0,5,0,2,8,0,0,0,14,2,0,14,0,0,0],"split_type":[0,0,0,0,0,0,0,0,0,0,0,0,0,0,0,0,0],"sum_hessian":[2.1552634E3,1.3526284E3,8.02635E2,1.036636E3,3.159925E2,9.1177895E1,9.4545807E2,9.004388E1,1.1340203E0,2.6405214E1,9.1905286E2,9.1790564E2,1.1471926E0,3.2434058E0,9.1466223E2,2.2195926E0,1.0238134E0],"tree_param":{"num_deleted":"0","num_feature":"16","num_nodes":"17","size_leaf_vector":"1"}},{"base_weights":[8.7340444E-2,-4.903638E-1,5.3439487E-2,1.0053346E0,-1.0167042E0,1.058345E0,5.6142516E-2,1.005536E0,-1.2242851E0,6.960114E-1,5.3356547E-2,4.8953217E-2,-1.0544076E0,5.293406E-2,2.6027164E-1,3.9114244E-2,-1.2310181E0,4.793395E-2,-3.9527863E-2,-5.641664E-2,-1.2581639E-2,-5.997354E-1,4.3565806E-2,-1.1204167E-2,-6.1598808E-2,-1.7588409E-3,-4.134505E-2],"categories":[],"categories_nodes":[],"categories_segments":[],"categories_sizes":[],"default_left":[0,0,0,0,0,0,0,0,0,0,0,0,0,0,0,0,0,0,0,0,0,0,0,0,0,0,0],"id":27,"left_children":[1,3,-1,5,7,9,11,13,15,17,-1,-1,19,-1,21,-1,23,-1,-1,-1,-1,25,-1,-1,-1,-1,-1],"loss_changes":[1.1748901E3,1.0279692E3,0E0,1.7051422E1,4.0649298E2,2.8237915E-1,2.0550623E1,3.3058624E0,1.2797852E1,4.8574843E0,0E0,0E0,2.5757027E-1,0E0,4.382316E0,0E0,5.665283E-1,0E0,0E0,0E0,0E0,4.3814945E-1,0E0,0E0,0E0,0E0,0E0],"parents":[2147483647,0,0,1,1,3,3,4,4,5,5,6,6,7,7,8,8,9,9,12,12,14,14,16,16,21,21],"right_children":[2,4,-1,6,8,10,12,14,16,18,-1,-1,20,-1,22,-1,24,-1,-1,-1,-1,26,-1,-1,-1,-1,-1],"split_conditions":[7.498345E-4,6.933172E-2,5.3439487E-2,5.2882796E-3,1.1273929E-2,4.6637997E-2,4.98217E-1,6.4451896E-2,4.685342E-1,4.2646313E-1,5.3356547E-2,4.8953217E-2,6.1498445E-1,5.293406E-2,6.846183E-2,3.9114244E-2,3.5397157E-2,4.793395E-2,-3.9527863E-2,-5.641664E-2,-1.2581639E-2,7.349403E-1,4.3565806E-2,-1.1204167E-2,-6.1598808E-2,-1.7588409E-3,-4.134505E-2],"split_indices":[4,0,0,0,2,11,8,5,8,8,0,0,8,0,14,0,11,0,0,0,0,8,0,0,0,0,0],"split_type":[0,0,0,0,0,0,0,0,0,0,0,0,0,0,0,0,0,0,0,0,0,0,0,0,0,0,0],"sum_hessian":[2.0702385E3,1.3034799E3,7.667587E2,3.3906128E2,9.644186E2,3.2101813E2,1.8043146E1,8.942286E1,8.749957E2,9.499035E0,3.115191E2,9.9186535E0,8.124492E0,8.3077965E1,6.3448873E0,2.5409503E0,8.724548E2,8.374431E0,1.1246043E0,7.0680737E0,1.0564184E0,2.6432233E0,3.7016642E0,1.0526483E0,8.714021E2,1.089763E0,1.5534601E0],"tree_param":{"num_deleted":"0","num_feature":"16","num_nodes":"27","size_leaf_vector":"1"}},{"base_weights":[8.12661E-2,-4.9372697E-1,5.3253114E-2,1.0370908E0,-9.915375E-1,5.270463E-2,1.7869851E-1,1.0379993E0,-1.1941547E0,4.2274848E-2,-3.9690237E-2,5.2461173E-2,1.0101892E-2,4.7451075E-2,-1.2134722E0,-1.2166524E0,3.0684967E-2,-6.0874023E-2,-1.8996594E-2],"categories":[],"categories_nodes":[],"categories_segments":[],"categories_sizes":[],"default_left":[0,0,0,0,0,0,0,0,0,0,0,0,0,0,0,0,0,0,0],"id":28,"left_children":[1,3,-1,5,7,-1,9,11,13,-1,-1,-1,-1,-1,15,17,-1,-1,-1],"loss_changes":[1.1195625E3,9.5299E2,0E0,4.2925415E0,3.8908752E2,0E0,5.31888E0,5.9633636E-1,3.667444E1,0E0,0E0,0E0,0E0,0E0,5.6903076E0,1.2597656E-1,0E0,0E0,0E0],"parents":[2147483647,0,0,1,1,3,3,4,4,6,6,7,7,8,8,14,14,15,15],"right_children":[2,4,-1,6,8,-1,10,12,14,-1,-1,-1,-1,-1,16,18,-1,-1,-1],"split_conditions":[7.498345E-4,3.0040942E-2,5.3253114E-2,5.2882796E-3,6.4451896E-2,5.270463E-2,6.3297373E-1,5.44887E-2,4.685342E-1,4.2274848E-2,-3.9690237E-2,5.2461173E-2,1.0101892E-2,4.7451075E-2,8.295113E-1,3.5089985E-1,3.0684967E-2,-6.0874023E-2,-1.8996594E-2],"split_indices":[4,0,0,0,5,0,6,5,8,0,0,0,0,0,6,5,0,0,0],"split_type":[0,0,0,0,0,0,0,0,0,0,0,0,0,0,0,0,0,0,0],"sum_hessian":[1.9772289E3,1.2481997E3,7.290291E2,3.0603326E2,9.4216644E2,2.9986597E2,6.1672797E0,8.514814E1,8.570183E2,3.7361674E0,2.431112E0,8.376831E1,1.3798308E0,7.2258162E0,8.4979254E2,8.486496E2,1.142901E0,8.47356E2,1.2936105E0],"tree_param":{"num_deleted":"0","num_feature":"16","num_nodes":"19","size_leaf_vector":"1"}},{"base_weights":[8.630928E-2,-4.8361436E-1,5.30782E-2,-9.496025E-1,5.29862E-2,1.0386189E0,-1.136302E0,5.2542903E-2,9.813603E-3,5.1362026E-2,-1.2008139E0,-4.7891144E-2,-1.2041976E0,-2.0991324E-2,2.0785147E-2,-1.2099371E-2,-6.0261816E-2],"categories":[],"categories_nodes":[],"categories_segments":[],"categories_sizes":[],"default_left":[0,0,0,0,0,0,0,0,0,0,0,0,0,0,0,0,0],"id":29,"left_children":[1,3,-1,5,-1,7,9,-1,-1,-1,11,13,15,-1,-1,-1,-1],"loss_changes":[1.0576716E3,8.6483813E2,0E0,3.4383765E2,0E0,6.160736E-1,1.1908203E2,0E0,0E0,0E0,3.1427002E0,7.6803225E-1,5.258789E-1,0E0,0E0,0E0,0E0],"parents":[2147483647,0,0,1,1,3,3,5,5,6,6,10,10,11,11,12,12],"right_children":[2,4,-1,6,-1,8,10,-1,-1,-1,12,14,16,-1,-1,-1,-1],"split_conditions":[7.498345E-4,4.154549E-3,5.30782E-2,6.4451896E-2,5.29862E-2,5.44887E-2,4.685342E-1,5.2542903E-2,9.813603E-3,5.1362026E-2,2.3142123E-3,7.2280675E-1,6.9324113E-3,-2.0991324E-2,2.0785147E-2,-1.2099371E-2,-6.0261816E-2],"split_indices":[4,12,0,5,0,5,8,0,0,0,3,6,11,0,0,0,0],"split_type":[0,0,0,0,0,0,0,0,0,0,0,0,0,0,0,0,0],"sum_hessian":[1.9009772E3,1.2001389E3,7.008383E2,9.2210706E2,2.7803183E2,7.87638E1,8.433432E2,7.7391785E1,1.3720182E0,2.398635E1,8.193569E2,2.442089E0,8.169148E2,1.407378E0,1.0347111E0,1.1332114E0,8.1578156E2],"tree_param":{"num_deleted":"0","num_feature":"16","num_nodes":"17","size_leaf_vector":"1"}},{"base_weights":[8.7277055E-2,-4.77055E-1,5.291134E-2,-9.3775E-1,5.2810114E-2,1.0274025E0,-1.1245778E0,5.2340563E-2,3.3440226E-1,5.4249996E-1,-1.1483862E0,-7.642094E-3,3.1357713E-2,4.6162967E-2,-6.773479E-2,1.2788893E-1,-1.1596167E0,-3.5476524E-1,2.9550606E-2,-7.4776053E-1,4.274329E-2,-1.1631064E0,2.4004316E-2,2.432375E-3,-3.57086E-2,-1.0739256E-2,-4.300705E-2,-3.421917E-2,-5.8352407E-2],"categories":[],"categories_nodes":[],"categories_segments":[],"categories_sizes":[],"default_left":[0,0,0,0,0,0,0,0,0,0,0,0,0,0,0,0,0,0,0,0,0,0,0,0,0,0,0,0,0],"id":30,"left_children":[1,3,-1,5,-1,7,9,-1,11,13,15,-1,-1,-1,17,19,21,23,-1,25,-1,27,-1,-1,-1,-1,-1,-1,-1],"loss_changes":[9.903131E2,8.0844617E2,0E0,3.2407166E2,0E0,6.8400574E-1,3.2520386E1,0E0,6.0421795E-1,2.8496006E0,1.15095215E1,0E0,0E0,0E0,1.257243E0,5.613902E0,5.0550537E0,6.8484956E-1,0E0,5.952835E-2,0E0,6.816406E-1,0E0,0E0,0E0,0E0,0E0,0E0,0E0],"parents":[2147483647,0,0,1,1,3,3,5,5,6,6,8,8,9,9,10,10,14,14,15,15,16,16,17,17,19,19,21,21],"right_children":[2,4,-1,6,-1,8,10,-1,12,14,16,-1,-1,-1,18,20,22,24,-1,26,-1,28,-1,-1,-1,-1,-1,-1,-1],"split_conditions":[7.498345E-4,4.154549E-3,5.291134E-2,6.4451896E-2,5.2810114E-2,4.482955E-2,7.2795763E-3,5.2340563E-2,1.042578E-1,5.2126664E-1,1.5005091E-1,-7.642094E-3,3.1357713E-2,4.6162967E-2,7.275795E-1,4.327637E-2,3.627018E-1,6.664164E-1,2.9550606E-2,1.6267283E-1,4.274329E-2,2.0724127E-1,2.4004316E-2,2.432375E-3,-3.57086E-2,-1.0739256E-2,-4.300705E-2,-3.421917E-2,-5.8352407E-2],"split_indices":[4,12,0,5,0,5,3,0,14,6,6,0,0,0,6,14,5,6,0,3,0,6,0,0,0,0,0,0,0],"split_type":[0,0,0,0,0,0,0,0,0,0,0,0,0,0,0,0,0,0,0,0,0,0,0,0,0,0,0,0,0],"sum_hessian":[1.8054236E3,1.1421157E3,6.6330786E2,8.7853296E2,2.6358276E2,7.5880714E1,8.026522E2,7.33168E1,2.5639124E0,1.0994974E1,7.916573E2,1.1416731E0,1.4222393E0,6.45462E0,4.540354E0,6.814715E0,7.848425E2,3.483828E0,1.0565257E0,3.078295E0,3.73642E0,7.834658E2,1.3767611E0,2.0488079E0,1.4350203E0,1.0429994E0,2.0352955E0,7.8242946E0,7.756415E2],"tree_param":{"num_deleted":"0","num_feature":"16","num_nodes":"29","size_leaf_vector":"1"}},{"base_weights":[8.361138E-2,9.724538E-1,-4.9939495E-1,1.0469239E0,6.145559E-1,1.0362078E0,-1.0190823E0,5.276514E-2,8.4464276E-1,8.087917E-2,5.2105587E-2,6.256993E-1,5.2629422E-2,-5.9033412E-2,5.2084442E-2,4.8360372E-1,5.000152E-2,5.0290655E-2,-3.7624335E-1,4.8118446E-2,-4.2186346E-2,4.582417E-2,-5.0375086E-1,-5.8390506E-2,4.925501E-2,-3.749394E-2,2.801895E-3],"categories":[],"categories_nodes":[],"categories_segments":[],"categories_sizes":[],"default_left":[0,0,0,0,0,0,0,0,0,0,0,0,0,0,0,0,0,0,0,0,0,0,0,0,0,0,0],"id":31,"left_children":[1,3,5,7,9,11,13,-1,15,17,-1,19,-1,-1,-1,21,-1,-1,23,-1,-1,-1,25,-1,-1,-1,-1],"loss_changes":[9.0331506E2,1.7758911E1,8.4121783E2,7.495117E-2,2.760328E1,1.1347656E0,2.6332513E2,0E0,1.0695286E0,2.3657114E1,0E0,7.0945525E0,0E0,0E0,0E0,4.8496556E0,0E0,0E0,4.1640564E1,0E0,0E0,0E0,5.620695E-1,0E0,0E0,0E0,0E0],"parents":[2147483647,0,0,1,1,2,2,3,3,4,4,5,5,6,6,8,8,9,9,11,11,15,15,18,18,22,22],"right_children":[2,4,6,8,10,12,14,-1,16,18,-1,20,-1,-1,-1,22,-1,-1,24,-1,-1,-1,26,-1,-1,-1,-1],"split_conditions":[5.910004E-1,4.9407762E-1,1.1273929E-2,4.7339067E-1,1.6884725E-1,5.2456595E-3,3.762596E-1,5.276514E-2,6.740575E-2,1.1273929E-2,5.2105587E-2,2.3142123E-3,5.2629422E-2,-5.9033412E-2,5.2084442E-2,3.2443553E-2,5.000152E-2,5.0290655E-2,2.951666E-1,4.8118446E-2,-4.2186346E-2,4.582417E-2,4.133288E-1,-5.8390506E-2,4.925501E-2,-3.749394E-2,2.801895E-3],"split_indices":[8,8,2,8,3,13,5,0,3,2,0,3,0,0,0,3,0,0,2,0,0,0,6,0,0,0,0],"split_type":[0,0,0,0,0,0,0,0,0,0,0,0,0,0,0,0,0,0,0,0,0,0,0,0,0,0,0],"sum_hessian":[1.7412388E3,6.894484E2,1.0517904E3,5.691057E2,1.2034271E2,2.656976E2,7.860928E2,5.4242084E2,2.6684847E1,5.4057323E1,6.6285385E1,1.1699483E1,2.5399812E2,7.293326E2,5.6760185E1,9.266537E0,1.741831E1,1.7482737E1,3.6574585E1,9.79936E0,1.9001223E0,6.492048E0,2.774489E0,2.3216995E1,1.335759E1,1.6912885E0,1.0832006E0],"tree_param":{"num_deleted":"0","num_feature":"16","num_nodes":"27","size_leaf_vector":"1"}},{"base_weights":[8.873571E-2,9.733744E-1,-4.912103E-1,1.0350856E0,5.730336E-1,5.2092094E-2,-1.0072161E0,5.2610677E-2,8.440376E-1,-3.781075E-3,5.169649E-2,-5.8511812E-2,5.190121E-2,4.934297E-1,5.123483E-2,4.926183E-2,-5.0002545E-1,4.8977684E-2,-4.734545E-1,-5.8108937E-2,4.715373E-2,-8.4488845E-1,3.0992964E-2,-4.936671E-2,-5.6934725E-3],"categories":[],"categories_nodes":[],"categories_segments":[],"categories_sizes":[],"default_left":[0,0,0,0,0,0,0,0,0,0,0,0,0,0,0,0,0,0,0,0,0,0,0,0,0],"id":32,"left_children":[1,3,5,7,9,-1,11,-1,13,15,-1,-1,-1,17,-1,-1,19,-1,21,-1,-1,23,-1,-1,-1],"loss_changes":[8.510168E2,1.5633484E1,7.937181E2,9.7003174E-1,2.3920465E1,0E0,2.5134296E2,0E0,2.7738075E0,2.0592016E1,0E0,0E0,0E0,9.645663E0,0E0,0E0,2.778774E1,0E0,3.4515743E0,0E0,0E0,4.9202108E-1,0E0,0E0,0E0],"parents":[2147483647,0,0,1,1,2,2,3,3,4,4,6,6,8,8,9,9,13,13,16,16,18,18,21,21],"right_children":[2,4,6,8,10,-1,12,-1,14,16,-1,-1,-1,18,-1,-1,20,-1,22,-1,-1,24,-1,-1,-1],"split_conditions":[5.910004E-1,5.176928E-1,1.1273929E-2,4.7339067E-1,1.6884725E-1,5.2092094E-2,3.762596E-1,5.2610677E-2,7.782244E-2,1.1273929E-2,5.169649E-2,-5.8511812E-2,5.190121E-2,3.6183525E-2,5.123483E-2,4.926183E-2,2.951666E-1,4.8977684E-2,3.059966E-1,-5.8108937E-2,4.715373E-2,1.4961231E-1,3.0992964E-2,-4.936671E-2,-5.6934725E-3],"split_indices":[8,8,2,8,3,0,5,0,3,2,0,0,0,3,0,0,2,0,11,0,0,0,0,0,0],"split_type":[0,0,0,0,0,0,0,0,0,0,0,0,0,0,0,0,0,0,0,0,0,0,0,0,0],"sum_hessian":[1.6568322E3,6.5580347E2,1.0010287E3,5.6684143E2,8.8962036E1,2.518283E2,7.492004E2,5.160669E2,5.0774517E1,3.995273E1,4.9009308E1,6.942885E2,5.4911873E1,1.853487E1,3.2239643E1,1.301947E1,2.6933258E1,1.2325054E1,6.209817E0,1.8595533E1,8.337726E0,4.804721E0,1.405096E0,3.7277145E0,1.0770062E0],"tree_param":{"num_deleted":"0","num_feature":"16","num_nodes":"25","size_leaf_vector":"1"}},{"base_weights":[8.82658E-2,9.6694595E-1,-4.8363286E-1,1.0396228E0,5.935819E-1,-9.962522E-1,5.2343834E-2,5.246826E-2,8.423173E-1,4.6845857E-2,5.1698077E-2,-1.1580993E0,5.1708937E-2,4.9369025E-1,5.0042726E-2,4.8527874E-2,-4.2057577E-1,1.6432615E-2,-5.8049973E-2,4.616641E-2,-4.8147175E-1,4.6987634E-2,-8.834581E-1,-4.531356E-2,1.7106405E-2,-5.7840224E-2,3.9731964E-2],"categories":[],"categories_nodes":[],"categories_segments":[],"categories_sizes":[],"default_left":[0,0,0,0,0,0,0,0,0,0,0,0,0,0,0,0,0,0,0,0,0,0,0,0,0,0,0],"id":33,"left_children":[1,3,5,7,9,11,-1,-1,13,15,-1,17,-1,19,-1,-1,21,-1,-1,-1,23,-1,25,-1,-1,-1,-1],"loss_changes":[7.980995E2,1.6372803E1,7.5591626E2,1.2097168E-1,2.507611E1,2.3821771E2,0E0,0E0,1.1455879E0,2.0960522E1,0E0,3.263916E0,0E0,5.156742E0,0E0,0E0,2.1171589E1,0E0,0E0,0E0,1.7434742E0,0E0,1.2211802E1,0E0,0E0,0E0,0E0],"parents":[2147483647,0,0,1,1,2,2,3,3,4,4,5,5,8,8,9,9,11,11,13,13,16,16,20,20,22,22],"right_children":[2,4,6,8,10,12,-1,-1,14,16,-1,18,-1,20,-1,-1,22,-1,-1,-1,24,-1,26,-1,-1,-1,-1],"split_conditions":[5.910004E-1,4.98217E-1,2.8493954E-3,4.7339067E-1,1.6884725E-1,3.762596E-1,5.2343834E-2,5.246826E-2,6.740575E-2,2.318166E-2,5.1698077E-2,6.4451896E-2,5.1708937E-2,3.2443553E-2,5.0042726E-2,4.8527874E-2,1.1273929E-2,1.6432615E-2,-5.8049973E-2,4.616641E-2,2.8846806E-1,4.6987634E-2,2.951666E-1,-4.531356E-2,1.7106405E-2,-5.7840224E-2,3.9731964E-2],"split_indices":[8,8,10,8,3,5,0,0,3,3,0,5,0,3,0,0,2,0,0,0,11,0,2,0,0,0,0],"split_type":[0,0,0,0,0,0,0,0,0,0,0,0,0,0,0,0,0,0,0,0,0,0,0,0,0,0,0],"sum_hessian":[1.5862766E3,6.251259E2,9.6115063E2,5.217757E2,1.03350204E2,7.2026025E2,2.408904E2,4.9310883E2,2.8666878E1,4.6600975E1,5.674923E1,6.6748425E2,5.277601E1,1.0247163E1,1.8419716E1,1.5296283E1,3.1304691E1,1.0808343E0,6.6640344E2,7.1501126E0,3.09705E0,7.6861744E0,2.3618517E1,1.9769785E0,1.1200715E0,2.057731E1,3.0412068E0],"tree_param":{"num_deleted":"0","num_feature":"16","num_nodes":"27","size_leaf_vector":"1"}},{"base_weights":[8.728613E-2,-4.6257073E-1,5.2331526E-2,1.0188403E0,-9.4242305E-1,5.1959373E-2,1.1427495E-1,9.7217494E-1,-1.1352968E0,3.932297E-2,-3.4607317E-2,5.1643517E-2,2.0568518E-1,4.3111067E-2,-1.1497451E0,-2.9764354E-2,4.0683474E-2,-1.1517906E0,3.9151586E-3,-9.761314E-3,-5.7648428E-2],"categories":[],"categories_nodes":[],"categories_segments":[],"categories_sizes":[],"default_left":[0,0,0,0,0,0,0,0,0,0,0,0,0,0,0,0,0,0,0,0,0],"id":34,"left_children":[1,3,-1,5,7,-1,9,11,13,-1,-1,-1,15,-1,17,-1,-1,19,-1,-1,-1],"loss_changes":[8.0170483E2,6.87792E2,0E0,4.2410126E0,2.7079468E2,0E0,3.9780943E0,2.9221115E0,2.0153381E1,0E0,0E0,0E0,3.499989E0,0E0,1.7470703E0,0E0,0E0,5.1708984E-1,0E0,0E0,0E0],"parents":[2147483647,0,0,1,1,3,3,4,4,6,6,7,7,8,8,12,12,14,14,17,17],"right_children":[2,4,-1,6,8,-1,10,12,14,-1,-1,-1,16,-1,18,-1,-1,20,-1,-1,-1],"split_conditions":[7.498345E-4,3.0040942E-2,5.2331526E-2,5.2882796E-3,1.1273929E-2,5.1959373E-2,2.3679686E-1,6.4451896E-2,4.685342E-1,3.932297E-2,-3.4607317E-2,5.1643517E-2,6.846183E-2,4.3111067E-2,3.627018E-1,-2.9764354E-2,4.0683474E-2,6.9324113E-3,3.9151586E-3,-9.761314E-3,-5.7648428E-2],"split_indices":[4,0,0,0,2,0,2,5,8,0,0,0,14,0,5,0,0,11,0,0,0],"split_type":[0,0,0,0,0,0,0,0,0,0,0,0,0,0,0,0,0,0,0,0,0],"sum_hessian":[1.5178959E3,9.652004E2,5.5269543E2,2.3587584E2,7.293245E2,2.3054126E2,5.334584E0,6.637728E1,6.6294727E2,2.9229457E0,2.4116385E0,6.1184765E1,5.192515E0,4.339375E0,6.5860785E2,2.249654E0,2.9428606E0,6.5757465E2,1.0332309E0,1.0138303E0,6.565608E2],"tree_param":{"num_deleted":"0","num_feature":"16","num_nodes":"21","size_leaf_vector":"1"}},{"base_weights":[8.645811E-2,-4.595859E-1,5.2203458E-2,9.7630876E-1,-9.473385E-1,1.0303212E0,8.3672054E-2,9.765101E-1,-1.1362048E0,6.103935E-1,5.2084547E-2,4.6363875E-2,-8.499739E-1,5.1458742E-2,2.1442667E-1,2.8442511E-2,-1.1400516E0,4.5475543E-2,-3.8036954E-2,-5.0409466E-2,8.111219E-4,-2.8503472E-2,3.858156E-2,-7.692036E-3,-5.712826E-2],"categories":[],"categories_nodes":[],"categories_segments":[],"categories_sizes":[],"default_left":[0,0,0,0,0,0,0,0,0,0,0,0,0,0,0,0,0,0,0,0,0,0,0,0,0],"id":35,"left_children":[1,3,-1,5,7,9,11,13,15,17,-1,-1,19,-1,21,-1,23,-1,-1,-1,-1,-1,-1,-1,-1],"loss_changes":[7.625632E2,6.514642E2,0E0,1.1292725E1,2.5322046E2,4.2625427E-1,1.22515955E1,2.2903442E0,4.7956543E0,4.0875835E0,0E0,0E0,1.0346384E0,0E0,2.759842E0,0E0,1.388916E0,0E0,0E0,0E0,0E0,0E0,0E0,0E0,0E0],"parents":[2147483647,0,0,1,1,3,3,4,4,5,5,6,6,7,7,8,8,9,9,12,12,14,14,16,16],"right_children":[2,4,-1,6,8,10,12,14,16,18,-1,-1,20,-1,22,-1,24,-1,-1,-1,-1,-1,-1,-1,-1],"split_conditions":[7.498345E-4,6.933172E-2,5.2203458E-2,5.2882796E-3,1.1273929E-2,4.6637997E-2,2.1590246E-1,6.4451896E-2,2.0177666E-2,7.4700534E-1,5.2084547E-2,4.6363875E-2,3.324492E-1,5.1458742E-2,6.846183E-2,2.8442511E-2,2.3142123E-3,4.5475543E-2,-3.8036954E-2,-5.0409466E-2,8.111219E-4,-2.8503472E-2,3.858156E-2,-7.692036E-3,-5.712826E-2],"split_indices":[4,0,0,0,2,11,2,5,11,6,0,0,5,0,14,0,3,0,0,0,0,0,0,0,0],"split_type":[0,0,0,0,0,0,0,0,0,0,0,0,0,0,0,0,0,0,0,0,0,0,0,0,0],"sum_hessian":[1.456423E3,9.278623E2,5.285607E2,2.3501122E2,6.928511E2,2.2145686E2,1.355436E1,6.156467E1,6.312864E2,7.279539E0,2.1417732E2,7.124114E0,6.430246E0,5.7257355E1,4.3073144E0,1.0904094E0,6.30196E2,6.2522593E0,1.0272801E0,5.2985163E0,1.1317298E0,1.7792271E0,2.5280871E0,1.760269E0,6.284357E2],"tree_param":{"num_deleted":"0","num_feature":"16","num_nodes":"25","size_leaf_vector":"1"}},{"base_weights":[8.5954875E-2,9.595761E-1,-4.8393193E-1,1.022056E0,5.4849946E-1,-9.778831E-1,5.1942445E-2,5.2083354E-2,8.0660695E-1,-1.2669578E-2,5.0955743E-2,-1.1324041E0,5.1177513E-2,4.2934573E-1,5.0391372E-2,4.8009444E-2,-4.7535592E-1,-5.6726225E-2,2.6817897E-3,4.7869552E-2,-5.510136E-1,-5.5971324E-2,4.597712E-2,-8.662244E-1,2.7421286E-2,-4.8922118E-2,-1.0336479E-2],"categories":[],"categories_nodes":[],"categories_segments":[],"categories_sizes":[],"default_left":[0,0,0,0,0,0,0,0,0,0,0,0,0,0,0,0,0,0,0,0,0,0,0,0,0,0,0],"id":36,"left_children":[1,3,5,7,9,11,-1,-1,13,15,-1,17,-1,19,-1,-1,21,-1,-1,-1,23,-1,-1,25,-1,-1,-1],"loss_changes":[6.9345337E2,1.356192E1,6.3515216E2,1.1716003E0,1.9742073E1,1.9818805E2,0E0,0E0,2.9193707E0,1.6238806E1,0E0,1.5494385E0,0E0,9.380733E0,0E0,0E0,2.2977676E1,0E0,0E0,0E0,2.7697875E0,0E0,0E0,2.0726824E-1,0E0,0E0,0E0],"parents":[2147483647,0,0,1,1,2,2,3,3,4,4,5,5,8,8,9,9,11,11,13,13,16,16,20,20,23,23],"right_children":[2,4,6,8,10,12,-1,-1,14,16,-1,18,-1,20,-1,-1,22,-1,-1,-1,24,-1,-1,26,-1,-1,-1],"split_conditions":[5.910004E-1,5.176928E-1,2.8493954E-3,4.7339067E-1,1.6884725E-1,3.762596E-1,5.1942445E-2,5.2083354E-2,7.782244E-2,1.1273929E-2,5.0955743E-2,4.610116E-1,5.1177513E-2,3.2443553E-2,5.0391372E-2,4.8009444E-2,2.951666E-1,-5.6726225E-2,2.6817897E-3,4.7869552E-2,3.130799E-1,-5.5971324E-2,4.597712E-2,1.4421399E-1,2.7421286E-2,-4.8922118E-2,-1.0336479E-2],"split_indices":[8,8,10,8,3,5,0,0,3,2,0,0,0,3,0,0,2,0,0,0,11,0,0,0,0,0,0],"split_type":[0,0,0,0,0,0,0,0,0,0,0,0,0,0,0,0,0,0,0,0,0,0,0,0,0,0,0],"sum_hessian":[1.390921E3,5.4885583E2,8.420651E2,4.75151E2,7.370486E1,6.3609125E2,2.059739E2,4.31994E2,4.3157005E1,3.4061947E1,3.9642914E1,5.9090454E2,4.5186676E1,1.6101873E1,2.7055132E1,1.0631849E1,2.34301E1,5.898934E2,1.011154E0,1.0480338E1,5.621536E0,1.616409E1,7.266009E0,4.533808E0,1.0877277E0,3.4612303E0,1.072578E0],"tree_param":{"num_deleted":"0","num_feature":"16","num_nodes":"27","size_leaf_vector":"1"}},{"base_weights":[7.821785E-2,-4.6122092E-1,5.196718E-2,1.0092665E0,-9.272009E-1,1.027794E0,1.03567496E-1,9.5287037E-1,-1.1120473E0,5.8015645E-1,5.183641E-2,3.7339054E-2,-3.6757078E-2,7.0559424E-1,5.094542E-2,5.536641E-1,-1.1204202E0,4.2435672E-2,-1.9423991E-2,4.6089783E-2,-2.7886987E-2,6.3372175E-3,3.4022685E-2,8.085906E-3,-1.1250439E0,-1.81682E-2,-5.6302E-2],"categories":[],"categories_nodes":[],"categories_segments":[],"categories_sizes":[],"default_left":[0,0,0,0,0,0,0,0,0,0,0,0,0,0,0,0,0,0,0,0,0,0,0,0,0,0,0],"id":37,"left_children":[1,3,-1,5,7,9,11,13,15,17,-1,-1,-1,19,-1,21,23,-1,-1,-1,-1,-1,-1,-1,25,-1,-1],"loss_changes":[6.937751E2,5.882917E2,0E0,3.3628387E0,2.274494E2,2.0832825E-1,3.3847606E0,2.4211502E-1,8.898926E0,1.9511139E0,0E0,0E0,0E0,4.790516E0,0E0,1.1068094E-1,3.6851196E0,0E0,0E0,0E0,0E0,0E0,0E0,0E0,3.7719727E-2,0E0,0E0],"parents":[2147483647,0,0,1,1,3,3,4,4,5,5,6,6,7,7,8,8,9,9,13,13,15,15,16,16,24,24],"right_children":[2,4,-1,6,8,10,12,14,16,18,-1,-1,-1,20,-1,22,24,-1,-1,-1,-1,-1,-1,-1,26,-1,-1],"split_conditions":[7.498345E-4,3.0040942E-2,5.196718E-2,5.2882796E-3,1.1273929E-2,3.9282218E-2,2.3004915E-1,5.2456595E-3,3.223868E-3,4.1537014E-1,5.183641E-2,3.7339054E-2,-3.6757078E-2,1.6407247E-1,5.094542E-2,5.4982856E-2,2.3142123E-3,4.2435672E-2,-1.9423991E-2,4.6089783E-2,-2.7886987E-2,6.3372175E-3,3.4022685E-2,8.085906E-3,1.5005091E-1,-1.81682E-2,-5.6302E-2],"split_indices":[4,0,0,0,2,11,2,13,11,14,0,0,0,3,0,0,3,0,0,0,0,0,0,0,6,0,0],"split_type":[0,0,0,0,0,0,0,0,0,0,0,0,0,0,0,0,0,0,0,0,0,0,0,0,0,0,0],"sum_hessian":[1.3361992E3,8.561814E2,4.8001785E2,2.0574585E2,6.5043555E2,2.0148924E2,4.2565956E0,5.785346E1,5.925821E2,5.2329655E0,1.9625629E2,2.4710963E0,1.7854995E0,1.4656726E1,4.3196735E1,2.6380584E0,5.8994403E2,4.1939797E0,1.0389857E0,1.27458105E1,1.9109151E0,1.0619512E0,1.5761073E0,1.9977454E0,5.879463E2,1.2455844E0,5.867007E2],"tree_param":{"num_deleted":"0","num_feature":"16","num_nodes":"27","size_leaf_vector":"1"}},{"base_weights":[8.490238E-2,9.512793E-1,-4.751843E-1,5.1776636E-2,6.252379E-1,-9.64661E-1,5.170671E-2,1.6013484E-1,5.110073E-2,-1.1174278E0,5.0812002E-2,4.9226772E-2,-2.9541895E-1,-5.598051E-2,-2.917954E-3,4.6893205E-2,-7.679907E-1,-5.479912E-2,4.1117992E-2],"categories":[],"categories_nodes":[],"categories_segments":[],"categories_sizes":[],"default_left":[0,0,0,0,0,0,0,0,0,0,0,0,0,0,0,0,0,0,0],"id":38,"left_children":[1,3,5,-1,7,9,-1,11,-1,13,-1,-1,15,-1,-1,-1,17,-1,-1],"loss_changes":[6.1681305E2,1.306192E1,5.714342E2,0E0,1.9214401E1,1.7773291E2,0E0,1.8891022E1,0E0,1.1879883E0,0E0,0E0,1.9760023E1,0E0,0E0,0E0,1.3507977E1,0E0,0E0],"parents":[2147483647,0,0,1,1,2,2,4,4,5,5,7,7,9,9,12,12,16,16],"right_children":[2,4,6,-1,8,10,-1,12,-1,14,-1,-1,16,-1,-1,-1,18,-1,-1],"split_conditions":[5.910004E-1,4.7784418E-1,2.8493954E-3,5.1776636E-2,1.6884725E-1,2.8563154E-1,5.170671E-2,1.8557614E-2,5.110073E-2,4.610116E-1,5.0812002E-2,4.9226772E-2,1.1273929E-2,-5.598051E-2,-2.917954E-3,4.6893205E-2,2.951666E-1,-5.479912E-2,4.1117992E-2],"split_indices":[8,8,10,0,3,2,0,3,0,0,0,0,2,0,0,0,2,0,0],"split_type":[0,0,0,0,0,0,0,0,0,0,0,0,0,0,0,0,0,0,0],"sum_hessian":[1.2692028E3,4.9806555E2,7.7113727E2,3.9405936E2,1.0400618E2,5.825691E2,1.8856813E2,4.8526653E1,5.5479523E1,5.412629E2,4.130623E1,1.6858038E1,3.1668617E1,5.400928E2,1.1701182E0,8.500372E0,2.3168245E1,1.9464722E1,3.7035236E0],"tree_param":{"num_deleted":"0","num_feature":"16","num_nodes":"19","size_leaf_vector":"1"}},{"base_weights":[8.0462426E-2,-4.510821E-1,5.175164E-2,-8.758268E-1,5.159522E-2,5.0965615E-2,-1.0363426E0,-1.1070057E0,4.9372762E-2,-2.194535E-3,-1.1090701E0,-1.1104281E0,-1.3682394E-2,-1.9098299E-2,-5.558024E-2],"categories":[],"categories_nodes":[],"categories_segments":[],"categories_sizes":[],"default_left":[0,0,0,0,0,0,0,0,0,0,0,0,0,0,0],"id":39,"left_children":[1,3,-1,5,-1,-1,7,9,-1,-1,11,13,-1,-1,-1],"loss_changes":[6.157075E2,4.9193176E2,0E0,1.8556119E2,0E0,0E0,8.112897E1,1.1390991E0,0E0,0E0,3.09021E-1,3.741455E-2,0E0,0E0,0E0],"parents":[2147483647,0,0,1,1,3,3,6,6,7,7,10,10,11,11],"right_children":[2,4,-1,6,-1,-1,8,10,-1,-1,12,14,-1,-1,-1],"split_conditions":[7.498345E-4,4.154549E-3,5.175164E-2,4.7339067E-1,5.159522E-2,5.0965615E-2,2.8493954E-3,6.9324113E-3,4.9372762E-2,-2.194535E-3,2.484791E-1,2.3142123E-3,-1.3682394E-2,-1.9098299E-2,-5.558024E-2],"split_indices":[4,12,0,8,0,0,10,11,0,0,3,3,0,0,0],"split_type":[0,0,0,0,0,0,0,0,0,0,0,0,0,0,0],"sum_hessian":[1.2115438E3,7.78545E2,4.329988E2,6.0552496E2,1.7302002E2,4.6864647E1,5.586603E2,5.402499E2,1.841041E1,1.0901617E0,5.391597E2,5.3795605E2,1.2036523E0,1.3927103E0,5.3656335E2],"tree_param":{"num_deleted":"0","num_feature":"16","num_nodes":"15","size_leaf_vector":"1"}},{"base_weights":[8.162562E-2,-4.4576737E-1,5.165208E-2,9.556978E-1,-9.200615E-1,1.0202485E0,8.562608E-2,9.4558764E-1,-1.1025575E0,6.238391E-1,5.1494967E-2,4.5482777E-2,-7.467348E-1,5.072364E-2,1.430069E-1,2.2184825E-2,-5.533247E-2,4.2894367E-2,-1.6990846E-2,-4.6004333E-2,4.671382E-4,3.3519987E-2,-3.336132E-1,-3.2427594E-2,6.113487E-3],"categories":[],"categories_nodes":[],"categories_segments":[],"categories_sizes":[],"default_left":[0,0,0,0,0,0,0,0,0,0,0,0,0,0,0,0,0,0,0,0,0,0,0,0,0],"id":40,"left_children":[1,3,-1,5,7,9,11,13,15,17,-1,-1,19,-1,21,-1,-1,-1,-1,-1,-1,-1,23,-1,-1],"loss_changes":[5.831978E2,4.9800052E2,0E0,1.0561035E1,1.9146432E2,3.237915E-2,1.0409471E1,2.639801E0,3.7172241E0,1.809207E0,0E0,0E0,1.0055757E0,0E0,1.5171298E0,0E0,0E0,0E0,0E0,0E0,0E0,0E0,5.6325054E-1,0E0,0E0],"parents":[2147483647,0,0,1,1,3,3,4,4,5,5,6,6,7,7,8,8,9,9,12,12,14,14,22,22],"right_children":[2,4,-1,6,8,10,12,14,16,18,-1,-1,20,-1,22,-1,-1,-1,-1,-1,-1,-1,24,-1,-1],"split_conditions":[7.498345E-4,7.458719E-2,5.165208E-2,5.2882796E-3,1.1273929E-2,4.6637997E-2,2.1590246E-1,6.4451896E-2,2.774714E-2,6.1913025E-1,5.1494967E-2,4.5482777E-2,3.324492E-1,5.072364E-2,2.102204E-1,2.2184825E-2,-5.533247E-2,4.2894367E-2,-1.6990846E-2,-4.6004333E-2,4.671382E-4,3.3519987E-2,1.3978444E-1,-3.2427594E-2,6.113487E-3],"split_indices":[4,0,0,0,2,11,2,5,11,6,0,0,5,0,11,0,0,0,0,0,0,0,6,0,0],"split_type":[0,0,0,0,0,0,0,0,0,0,0,0,0,0,0,0,0,0,0,0,0,0,0,0,0],"sum_hessian":[1.1603632E3,7.4688055E2,4.1348257E2,1.8859546E2,5.582851E2,1.7540921E2,1.3186239E1,4.9372322E1,5.0891278E2,5.7290454E0,1.6968018E2,6.579618E0,6.6066213E0,4.5226536E1,4.1457853E0,1.0596509E0,5.0785312E2,4.6978188E0,1.0312266E0,5.1979303E0,1.408691E0,1.7750617E0,2.3707235E0,1.1521517E0,1.2185719E0],"tree_param":{"num_deleted":"0","num_feature":"16","num_nodes":"25","size_leaf_vector":"1"}},{"base_weights":[8.283624E-2,-4.4569224E-1,5.1557582E-2,-8.621323E-1,5.1382728E-2,5.069719E-2,-1.0217893E0,-1.0933628E0,4.8965346E-2,2.8145388E-3,-1.0958214E0,-1.0980371E0,-2.5178744E-3,-1.4570083E-2,-5.496911E-2],"categories":[],"categories_nodes":[],"categories_segments":[],"categories_sizes":[],"default_left":[0,0,0,0,0,0,0,0,0,0,0,0,0,0,0],"id":41,"left_children":[1,3,-1,5,-1,-1,7,9,-1,-1,11,13,-1,-1,-1],"loss_changes":[5.5847833E2,4.399494E2,0E0,1.6830823E2,0E0,0E0,7.4853516E1,1.468811E0,0E0,0E0,1.095581E0,2.1746826E-1,0E0,0E0,0E0],"parents":[2147483647,0,0,1,1,3,3,6,6,7,7,10,10,11,11],"right_children":[2,4,-1,6,-1,-1,8,10,-1,-1,12,14,-1,-1,-1],"split_conditions":[7.498345E-4,4.154549E-3,5.1557582E-2,4.7339067E-1,5.1382728E-2,5.069719E-2,2.8493954E-3,6.929046E-2,4.8965346E-2,2.8145388E-3,5.1347613E-1,1.3274396E-2,-2.5178744E-3,-1.4570083E-2,-5.496911E-2],"split_indices":[4,12,0,8,0,0,10,6,0,0,14,11,0,0,0],"split_type":[0,0,0,0,0,0,0,0,0,0,0,0,0,0,0],"sum_hessian":[1.1123395E3,7.145991E2,3.977404E2,5.57451E2,1.5714813E2,4.3299732E1,5.1415125E2,4.968345E2,1.7316738E1,1.0134927E0,4.95821E2,4.947222E2,1.0988064E0,1.1858542E0,4.9353635E2],"tree_param":{"num_deleted":"0","num_feature":"16","num_nodes":"15","size_leaf_vector":"1"}},{"base_weights":[7.3972605E-2,-4.482038E-1,5.1464982E-2,9.950818E-1,-8.9703816E-1,1.0154226E0,8.845855E-2,9.6725655E-1,-1.0721624E0,6.080693E-1,5.128735E-2,3.5146136E-2,-3.4151703E-2,5.0085492E-2,3.2760147E-3,4.1854907E-2,-1.0901029E0,4.222782E-2,-1.610201E-2,2.956438E-3,-5.4721452E-2],"categories":[],"categories_nodes":[],"categories_segments":[],"categories_sizes":[],"default_left":[0,0,0,0,0,0,0,0,0,0,0,0,0,0,0,0,0,0,0,0,0],"id":42,"left_children":[1,3,-1,5,7,9,11,13,15,17,-1,-1,-1,-1,-1,-1,19,-1,-1,-1,-1],"loss_changes":[5.2856854E2,4.4476343E2,0E0,2.9163666E0,1.7184949E2,4.6401978E-2,2.695137E0,1.3464508E0,1.7310852E1,1.678499E0,0E0,0E0,0E0,0E0,0E0,0E0,2.4247437E0,0E0,0E0,0E0,0E0],"parents":[2147483647,0,0,1,1,3,3,4,4,5,5,6,6,7,7,8,8,9,9,16,16],"right_children":[2,4,-1,6,8,10,12,14,16,18,-1,-1,-1,-1,-1,-1,20,-1,-1,-1,-1],"split_conditions":[7.498345E-4,3.0040942E-2,5.1464982E-2,5.2882796E-3,7.100542E-2,4.6637997E-2,6.3297373E-1,5.44887E-2,4.685342E-1,6.1913025E-1,5.128735E-2,3.5146136E-2,-3.4151703E-2,5.0085492E-2,3.2760147E-3,4.1854907E-2,2.3142123E-3,4.222782E-2,-1.610201E-2,2.956438E-3,-5.4721452E-2],"split_indices":[4,0,0,0,5,11,6,5,8,6,0,0,0,0,0,0,3,0,0,0,0],"split_type":[0,0,0,0,0,0,0,0,0,0,0,0,0,0,0,0,0,0,0,0,0],"sum_hessian":[1.057651E3,6.842013E2,3.7344974E2,1.6201236E2,5.221889E2,1.5833986E2,3.6724937E0,4.4451782E1,4.7773712E2,5.394456E0,1.529454E2,2.093768E0,1.5787259E0,4.27091E1,1.7426844E0,4.022261E0,4.7371487E2,4.374252E0,1.0202037E0,1.7289958E0,4.7198587E2],"tree_param":{"num_deleted":"0","num_feature":"16","num_nodes":"21","size_leaf_vector":"1"}},{"base_weights":[8.635641E-2,-4.3544054E-1,5.137924E-2,-8.503096E-1,5.118795E-2,9.4459116E-1,-1.0251143E0,5.0350428E-2,2.356271E-1,4.8343968E-2,-1.0874449E0,3.7067268E-2,-2.0741483E-2,-5.4525267E-2,1.218581E-3],"categories":[],"categories_nodes":[],"categories_segments":[],"categories_sizes":[],"default_left":[0,0,0,0,0,0,0,0,0,0,0,0,0,0,0],"id":43,"left_children":[1,3,-1,5,-1,7,9,-1,11,-1,13,-1,-1,-1,-1],"loss_changes":[4.967012E2,3.948242E2,0E0,1.6011957E2,0E0,1.7777939E0,5.8502197E1,0E0,1.9490204E0,0E0,1.5548706E0,0E0,0E0,0E0,0E0],"parents":[2147483647,0,0,1,1,3,3,5,5,6,6,8,8,10,10],"right_children":[2,4,-1,6,-1,8,10,-1,12,-1,14,-1,-1,-1,-1],"split_conditions":[7.498345E-4,4.154549E-3,5.137924E-2,1.1273929E-2,5.118795E-2,6.4451896E-2,4.685342E-1,5.0350428E-2,5.862819E-1,4.8343968E-2,3.5089985E-1,3.7067268E-2,-2.0741483E-2,-5.4525267E-2,1.218581E-3],"split_indices":[4,12,0,2,0,5,8,0,8,0,5,0,0,0,0],"split_type":[0,0,0,0,0,0,0,0,0,0,0,0,0,0,0],"sum_hessian":[1.00943243E3,6.497579E2,3.5967456E2,5.0624362E2,1.4351425E2,4.4536594E1,4.6170703E2,4.054648E1,3.9901178E0,1.3568429E1,4.481386E2,2.1662035E0,1.8239142E0,4.4692752E2,1.2110673E0],"tree_param":{"num_deleted":"0","num_feature":"16","num_nodes":"15","size_leaf_vector":"1"}},{"base_weights":[8.559002E-2,-4.3241334E-1,5.1295277E-2,9.900298E-1,-8.877154E-1,1.0076408E0,1.6560538E-1,9.5024073E-1,-1.0686127E0,5.122928E-1,5.1101804E-2,3.381897E-2,-2.4947327E-2,5.0200045E-2,2.2142924E-1,3.008232E-1,-1.07735E0,4.1142203E-2,-1.6301233E-2,3.387075E-2,-1.9112093E-2,3.2200236E-2,-1.3691463E-2,1.4239718E-2,-5.4114174E-2],"categories":[],"categories_nodes":[],"categories_segments":[],"categories_sizes":[],"default_left":[0,0,0,0,0,0,0,0,0,0,0,0,0,0,0,0,0,0,0,0,0,0,0,0,0],"id":44,"left_children":[1,3,-1,5,7,9,11,13,15,17,-1,-1,-1,-1,19,21,23,-1,-1,-1,-1,-1,-1,-1,-1],"loss_changes":[4.6762988E2,4.0186862E2,0E0,2.0196838E0,1.5713315E2,5.264435E-1,1.8128213E0,1.4469185E0,5.444641E0,1.872878E0,0E0,0E0,0E0,0E0,1.4177079E0,8.6556786E-1,3.1673584E0,0E0,0E0,0E0,0E0,0E0,0E0,0E0,0E0],"parents":[2147483647,0,0,1,1,3,3,4,4,5,5,6,6,7,7,8,8,9,9,14,14,15,15,16,16],"right_children":[2,4,-1,6,8,10,12,14,16,18,-1,-1,-1,-1,20,22,24,-1,-1,-1,-1,-1,-1,-1,-1],"split_conditions":[7.498345E-4,3.0040942E-2,5.1295277E-2,5.2882796E-3,1.1273929E-2,4.6637997E-2,2.3679686E-1,6.4451896E-2,2.3142123E-3,3.205109E-1,5.1101804E-2,3.381897E-2,-2.4947327E-2,5.0200045E-2,2.102204E-1,1.1298819E-1,3.223868E-3,4.1142203E-2,-1.6301233E-2,3.387075E-2,-1.9112093E-2,3.2200236E-2,-1.3691463E-2,1.4239718E-2,-5.4114174E-2],"split_indices":[4,0,0,0,2,11,2,5,3,5,0,0,0,0,11,0,11,0,0,0,0,0,0,0,0],"split_type":[0,0,0,0,0,0,0,0,0,0,0,0,0,0,0,0,0,0,0,0,0,0,0,0,0],"sum_hessian":[9.581443E2,6.181541E2,3.3999017E2,1.4960075E2,4.6855334E2,1.462543E2,3.3464592E0,4.1603165E1,4.269502E2,5.1635065E0,1.4109079E2,1.8820891E0,1.46437E0,3.8393513E1,3.2096527E0,2.494855E0,4.2445532E2,3.781225E0,1.3822815E0,1.7589003E0,1.4507524E0,1.4864589E0,1.0083961E0,1.3270499E0,4.2312827E2],"tree_param":{"num_deleted":"0","num_feature":"16","num_nodes":"25","size_leaf_vector":"1"}},{"base_weights":[8.819034E-2,-4.2866844E-1,5.1216602E-2,-8.382925E-1,5.100295E-2,9.504136E-1,-1.0130988E0,5.0089937E-2,2.9211622E-1,2.3698793E-1,-1.051885E0,3.6711745E-2,-2.3818089E-2,7.4971527E-1,-7.264911E-1,3.9718902E-1,-1.0626694E0,4.3970317E-2,8.157947E-3,-5.864739E-3,-4.368428E-2,-4.1958755E-3,3.252992E-2,-1.0655236E0,-6.686757E-3,-2.5947124E-2,-5.3529438E-2],"categories":[],"categories_nodes":[],"categories_segments":[],"categories_sizes":[],"default_left":[0,0,0,0,0,0,0,0,0,0,0,0,0,0,0,0,0,0,0,0,0,0,0,0,0,0,0],"id":45,"left_children":[1,3,-1,5,-1,7,9,-1,11,13,15,-1,-1,17,19,21,23,-1,-1,-1,-1,-1,-1,25,-1,-1,-1],"loss_changes":[4.4428375E2,3.519974E2,0E0,1.4536798E2,0E0,1.1156235E0,2.0671753E1,0E0,1.8535337E0,7.2094417E0,6.8091736E0,0E0,0E0,5.637965E-1,3.6325145E-1,5.114431E-1,9.338684E-1,0E0,0E0,0E0,0E0,0E0,0E0,5.6451416E-1,0E0,0E0,0E0],"parents":[2147483647,0,0,1,1,3,3,5,5,6,6,8,8,9,9,10,10,13,13,14,14,15,15,16,16,23,23],"right_children":[2,4,-1,6,-1,8,10,-1,12,14,16,-1,-1,18,20,22,24,-1,-1,-1,-1,-1,-1,26,-1,-1,-1],"split_conditions":[7.498345E-4,4.154549E-3,5.1216602E-2,1.1273929E-2,5.100295E-2,6.4451896E-2,4.6637997E-2,5.0089937E-2,1.5295243E-1,4.3298364E-1,2.3142123E-3,3.6711745E-2,-2.3818089E-2,3.5397157E-2,9.446123E-2,1.4276767E-1,2.787308E-1,4.3970317E-2,8.157947E-3,-5.864739E-3,-4.368428E-2,-4.1958755E-3,3.252992E-2,6.012308E-2,-6.686757E-3,-2.5947124E-2,-5.3529438E-2],"split_indices":[4,12,0,2,0,5,11,0,3,14,3,0,0,11,3,2,2,0,0,0,0,0,0,11,0,0,0],"split_type":[0,0,0,0,0,0,0,0,0,0,0,0,0,0,0,0,0,0,0,0,0,0,0,0,0,0,0],"sum_hessian":[9.163128E2,5.907129E2,3.2559995E2,4.6083447E2,1.2987843E2,4.0631874E1,4.202026E2,3.7205868E1,3.4260042E0,1.2491404E1,4.077112E2,2.2030888E0,1.2229153E0,8.2976E0,4.193804E0,2.747194E0,4.04964E2,6.386284E0,1.9113154E0,1.1657917E0,3.0280123E0,1.1785405E0,1.5686537E0,4.0357693E2,1.387075E0,4.655482E0,3.9892145E2],"tree_param":{"num_deleted":"0","num_feature":"16","num_nodes":"27","size_leaf_vector":"1"}},{"base_weights":[8.3146825E-2,-4.346488E-1,5.1141243E-2,9.828897E-1,-8.7755233E-1,1.0028534E0,1.2527226E-1,9.163157E-1,-1.0572748E0,4.708011E-1,5.0926156E-2,3.2795228E-2,-2.5338415E-2,5.946857E-1,4.9713787E-2,3.869882E-2,-1.0727949E0,4.0480066E-2,-2.7451074E-2,4.580336E-2,-2.648955E-2,-6.388855E-4,-1.0754801E0,-5.3846654E-2,-1.6631309E-2],"categories":[],"categories_nodes":[],"categories_segments":[],"categories_sizes":[],"default_left":[0,0,0,0,0,0,0,0,0,0,0,0,0,0,0,0,0,0,0,0,0,0,0,0,0],"id":46,"left_children":[1,3,-1,5,7,9,11,13,15,17,-1,-1,-1,19,-1,-1,21,-1,-1,-1,-1,-1,23,-1,-1],"loss_changes":[4.281445E2,3.5711798E2,0E0,2.195282E0,1.4052835E2,6.237335E-1,1.7498746E0,4.1056824E-1,1.20260315E1,2.3950686E0,0E0,0E0,0E0,4.201645E0,0E0,0E0,1.0993042E0,0E0,0E0,0E0,0E0,0E0,6.274414E-2,0E0,0E0],"parents":[2147483647,0,0,1,1,3,3,4,4,5,5,6,6,7,7,8,8,9,9,13,13,16,16,22,22],"right_children":[2,4,-1,6,8,10,12,14,16,18,-1,-1,-1,20,-1,-1,22,-1,-1,-1,-1,-1,24,-1,-1],"split_conditions":[7.498345E-4,3.0040942E-2,5.1141243E-2,5.2882796E-3,1.1273929E-2,4.6637997E-2,2.3679686E-1,2.8493954E-3,4.685342E-1,3.8188618E-1,5.0926156E-2,3.2795228E-2,-2.5338415E-2,6.1058336E-1,4.9713787E-2,3.869882E-2,1.3274396E-2,4.0480066E-2,-2.7451074E-2,4.580336E-2,-2.648955E-2,-6.388855E-4,2.7122045E-1,-5.3846654E-2,-1.6631309E-2],"split_indices":[4,0,0,0,2,11,2,10,8,8,0,0,0,8,0,0,11,0,0,0,0,0,2,0,0],"split_type":[0,0,0,0,0,0,0,0,0,0,0,0,0,0,0,0,0,0,0,0,0,0,0,0,0],"sum_hessian":[8.7802594E2,5.6643677E2,3.1158914E2,1.3455774E2,4.3187906E2,1.3133125E2,3.226484E0,3.895529E1,3.9292377E2,4.64541E0,1.26685844E2,1.7334238E0,1.4930602E0,9.283517E0,2.9671774E1,2.8913827E0,3.9003238E2,3.6417139E0,1.0036962E0,7.364144E0,1.9193734E0,1.000099E0,3.890323E2,3.8782404E2,1.2082524E0],"tree_param":{"num_deleted":"0","num_feature":"16","num_nodes":"25","size_leaf_vector":"1"}},{"base_weights":[8.214524E-2,-4.279886E-1,5.1066738E-2,9.822534E-1,-8.7211275E-1,5.0056636E-2,1.5863617E-1,9.3289614E-1,-1.0512756E0,3.274594E-2,-2.3788882E-2,4.982631E-2,2.2800888E-1,3.9358534E-2,-1.0685444E0,3.50161E-2,-1.914676E-2,-5.352741E-2,-1.9294605E-2],"categories":[],"categories_nodes":[],"categories_segments":[],"categories_sizes":[],"default_left":[0,0,0,0,0,0,0,0,0,0,0,0,0,0,0,0,0,0,0],"id":47,"left_children":[1,3,-1,5,7,-1,9,11,13,-1,-1,-1,15,-1,17,-1,-1,-1,-1],"loss_changes":[4.023563E2,3.4177466E2,0E0,1.8755875E0,1.350202E2,0E0,1.6088228E0,1.4751854E0,1.282666E1,0E0,0E0,0E0,1.5491624E0,0E0,9.9090576E-2,0E0,0E0,0E0,0E0],"parents":[2147483647,0,0,1,1,3,3,4,4,6,6,7,7,8,8,12,12,14,14],"right_children":[2,4,-1,6,8,-1,10,12,14,-1,-1,-1,16,-1,18,-1,-1,-1,-1],"split_conditions":[7.498345E-4,3.0040942E-2,5.1066738E-2,5.2882796E-3,1.1273929E-2,5.0056636E-2,2.3679686E-1,6.4451896E-2,4.685342E-1,3.274594E-2,-2.3788882E-2,4.982631E-2,5.862819E-1,3.9358534E-2,3.4048256E-1,3.50161E-2,-1.914676E-2,-5.352741E-2,-1.9294605E-2],"split_indices":[4,0,0,0,2,0,2,5,8,0,0,0,8,0,5,0,0,0,0],"split_type":[0,0,0,0,0,0,0,0,0,0,0,0,0,0,0,0,0,0,0],"sum_hessian":[8.378829E2,5.43317E2,2.945659E2,1.2983525E2,4.1348175E2,1.2671509E2,3.1201634E0,3.695589E1,3.7652588E2,1.7325339E0,1.3876294E0,3.3516613E1,3.4392788E0,3.0889587E0,3.7343692E2,1.8572036E0,1.5820751E0,3.7177744E2,1.6594888E0],"tree_param":{"num_deleted":"0","num_feature":"16","num_nodes":"19","size_leaf_vector":"1"}},{"base_weights":[7.7984646E-2,-4.3220326E-1,5.0996166E-2,1.002302E0,-8.639617E-1,4.2245197E-1,5.0764024E-2,9.210685E-1,-1.0394984E0,3.5901032E-2,-1.3333804E-2,4.9683888E-2,1.9565168E-1,3.0566713E-2,-1.0539534E0,3.395017E-2,-1.7635934E-2,2.2809535E-1,-1.0618829E0,2.7721709E-2,-1.06253885E-2,-3.2528841E-1,-5.326691E-2,2.7967654E-3,-2.7811587E-2],"categories":[],"categories_nodes":[],"categories_segments":[],"categories_sizes":[],"default_left":[0,0,0,0,0,0,0,0,0,0,0,0,0,0,0,0,0,0,0,0,0,0,0,0,0],"id":48,"left_children":[1,3,-1,5,7,9,-1,11,13,-1,-1,-1,15,-1,17,-1,-1,19,21,-1,-1,23,-1,-1,-1],"loss_changes":[3.841046E2,3.2204547E2,0E0,4.77417E-1,1.2602142E2,1.0773405E0,0E0,1.7157955E0,9.3272705E0,0E0,0E0,0E0,1.4441445E0,0E0,3.9128723E0,0E0,0E0,5.553179E-1,5.671692E-1,0E0,0E0,3.0543503E-1,0E0,0E0,0E0],"parents":[2147483647,0,0,1,1,3,3,4,4,5,5,7,7,8,8,12,12,14,14,17,17,18,18,21,21],"right_children":[2,4,-1,6,8,10,-1,12,14,-1,-1,-1,16,-1,18,-1,-1,20,22,-1,-1,24,-1,-1,-1],"split_conditions":[7.498345E-4,5.2882796E-3,5.0996166E-2,3.9282218E-2,1.1273929E-2,5.2650154E-1,5.0764024E-2,6.4451896E-2,3.223868E-3,3.5901032E-2,-1.3333804E-2,4.9683888E-2,4.6112623E-2,3.0566713E-2,2.3142123E-3,3.395017E-2,-1.7635934E-2,7.864023E-2,3.0040942E-2,2.7721709E-2,-1.06253885E-2,2.7122045E-1,-5.326691E-2,2.7967654E-3,-2.7811587E-2],"split_indices":[4,0,0,11,2,6,0,5,11,0,0,0,3,0,3,0,0,0,0,0,0,2,0,0,0],"split_type":[0,0,0,0,0,0,0,0,0,0,0,0,0,0,0,0,0,0,0,0,0,0,0,0,0],"sum_hessian":[7.973587E2,5.1756696E2,2.7979175E2,1.1943293E2,3.9813403E2,3.3491817E0,1.1608375E2,3.526613E1,3.628679E2,2.3145425E0,1.034639E0,3.1721245E1,3.544883E0,2.7913482E0,3.6007654E2,1.7575235E0,1.7873595E0,2.0426927E0,3.5803384E2,1.0250915E0,1.017601E0,2.1158428E0,3.5591803E2,1.0840958E0,1.0317471E0],"tree_param":{"num_deleted":"0","num_feature":"16","num_nodes":"25","size_leaf_vector":"1"}},{"base_weights":[8.8754624E-2,-4.2088813E-1,5.093047E-2,9.421374E-1,-8.790033E-1,5.025177E-2,1.4281914E-1,9.052507E-1,-1.0570304E0,4.300454E-2,-6.442983E-1,4.9505766E-2,1.21482074E-1,1.5756128E-2,-1.0622306E0,5.809336E-3,-4.250095E-2,-2.6913324E-2,3.4723837E-2,-1.6327541E-2,-5.3186566E-2],"categories":[],"categories_nodes":[],"categories_segments":[],"categories_sizes":[],"default_left":[0,0,0,0,0,0,0,0,0,0,0,0,0,0,0,0,0,0,0,0,0],"id":49,"left_children":[1,3,-1,5,7,-1,9,11,13,-1,15,-1,17,-1,19,-1,-1,-1,-1,-1,-1],"loss_changes":[3.610222E2,3.0818616E2,0E0,6.105934E0,1.1814368E2,0E0,6.331784E0,2.1418056E0,2.731598E0,0E0,9.5154643E-1,0E0,2.0607848E0,0E0,2.2338867E-2,0E0,0E0,0E0,0E0,0E0,0E0],"parents":[2147483647,0,0,1,1,3,3,4,4,6,6,7,7,8,8,10,10,12,12,14,14],"right_children":[2,4,-1,6,8,-1,10,12,14,-1,16,-1,18,-1,20,-1,-1,-1,-1,-1,-1],"split_conditions":[7.498345E-4,7.458719E-2,5.093047E-2,5.2882796E-3,1.1273929E-2,5.025177E-2,2.1590246E-1,6.4451896E-2,3.1693976E-2,4.300454E-2,9.446123E-2,4.9505766E-2,6.846183E-2,1.5756128E-2,2.3142123E-3,5.809336E-3,-4.250095E-2,-2.6913324E-2,3.4723837E-2,-1.6327541E-2,-5.3186566E-2],"split_indices":[4,0,0,0,2,0,2,5,11,0,3,0,14,0,3,0,0,0,0,0,0],"split_type":[0,0,0,0,0,0,0,0,0,0,0,0,0,0,0,0,0,0,0,0,0],"sum_hessian":[7.5991626E2,4.9122748E2,2.6868878E2,1.23304436E2,3.6792303E2,1.14070885E2,9.233555E0,3.300907E1,3.3491397E2,4.7826185E0,4.4509363E0,2.9546566E1,3.4625046E0,1.0394267E0,3.3387454E2,1.040341E0,3.4105952E0,1.6375874E0,1.8249172E0,1.124701E0,3.3274985E2],"tree_param":{"num_deleted":"0","num_feature":"16","num_nodes":"21","size_leaf_vector":"1"}},{"base_weights":[8.3830975E-2,-4.2616242E-1,5.086584E-2,9.4000095E-1,-8.771498E-1,5.0354954E-2,1.20669596E-1,9.008275E-1,-1.0537622E0,4.2450834E-2,-6.746562E-1,5.4284745E-1,4.9134772E-2,1.4415582E-2,-5.2946307E-2,-4.2114627E-2,-1.4038698E-4,4.4053003E-2,-2.5738223E-2],"categories":[],"categories_nodes":[],"categories_segments":[],"categories_sizes":[],"default_left":[0,0,0,0,0,0,0,0,0,0,0,0,0,0,0,0,0,0,0],"id":50,"left_children":[1,3,-1,5,7,-1,9,11,13,-1,15,17,-1,-1,-1,-1,-1,-1,-1],"loss_changes":[3.4678143E2,2.911296E2,0E0,6.3338165E0,1.1234802E2,0E0,6.379644E0,4.2179108E-1,2.5449219E0,0E0,6.000807E-1,3.4227452E0,0E0,0E0,0E0,0E0,0E0,0E0,0E0],"parents":[2147483647,0,0,1,1,3,3,4,4,6,6,7,7,8,8,10,10,11,11],"right_children":[2,4,-1,6,8,-1,10,12,14,-1,16,18,-1,-1,-1,-1,-1,-1,-1],"split_conditions":[7.498345E-4,7.458719E-2,5.086584E-2,5.2882796E-3,1.1273929E-2,5.0354954E-2,4.6449593E-1,2.8493954E-3,4.7784418E-1,4.2450834E-2,6.1498445E-1,6.1058336E-1,4.9134772E-2,1.4415582E-2,-5.2946307E-2,-4.2114627E-2,-1.4038698E-4,4.4053003E-2,-2.5738223E-2],"split_indices":[4,0,0,0,2,0,8,10,8,0,8,8,0,0,0,0,0,0,0],"split_type":[0,0,0,0,0,0,0,0,0,0,0,0,0,0,0,0,0,0,0],"sum_hessian":[7.265122E2,4.701808E2,2.5633142E2,1.1642214E2,3.5375864E2,1.0739777E2,9.024371E0,3.1594332E1,3.221643E2,4.6752977E0,4.3490734E0,7.300883E0,2.4293447E1,1.0246538E0,3.2113965E2,3.2775748E0,1.0714985E0,5.658342E0,1.6425412E0],"tree_param":{"num_deleted":"0","num_feature":"16","num_nodes":"19","size_leaf_vector":"1"}},{"base_weights":[8.292388E-2,-4.2361006E-1,5.0801475E-2,9.761414E-1,-8.569726E-1,4.9999192E-2,1.0558908E-1,-1.0014966E0,4.917607E-2,3.1116566E-2,-2.396424E-2,4.5124363E-2,-1.0487103E0,-1.0521318E0,-6.089655E-4,-1.65044E-2,-5.2691866E-2],"categories":[],"categories_nodes":[],"categories_segments":[],"categories_sizes":[],"default_left":[0,0,0,0,0,0,0,0,0,0,0,0,0,0,0,0,0],"id":51,"left_children":[1,3,-1,5,7,-1,9,11,-1,-1,-1,-1,13,15,-1,-1,-1],"loss_changes":[3.262513E2,2.722956E2,0E0,2.0999908E0,9.2021194E1,0E0,1.4923073E0,2.9517029E1,0E0,0E0,0E0,0E0,1.0887451E0,3.3294678E-2,0E0,0E0,0E0],"parents":[2147483647,0,0,1,1,3,3,4,4,6,6,7,7,12,12,13,13],"right_children":[2,4,-1,6,8,-1,10,12,-1,-1,-1,-1,14,16,-1,-1,-1],"split_conditions":[7.498345E-4,3.0040942E-2,5.0801475E-2,5.2882796E-3,2.8493954E-3,4.9999192E-2,6.3297373E-1,4.7784418E-1,4.917607E-2,3.1116566E-2,-2.396424E-2,4.5124363E-2,4.5669204E-1,1.651198E-2,-6.089655E-4,-1.65044E-2,-5.2691866E-2],"split_indices":[4,0,0,0,10,0,6,8,0,0,0,0,0,11,0,0,0],"split_type":[0,0,0,0,0,0,0,0,0,0,0,0,0,0,0,0,0],"sum_hessian":[6.8834973E2,4.4650934E2,2.4184042E2,1.0526221E2,3.4124713E2,1.02311455E2,2.9507568E0,3.168245E2,2.4422651E1,1.5326239E0,1.418133E0,7.2279677E0,3.0959653E2,3.0856293E2,1.0335783E0,1.1855614E0,3.0737738E2],"tree_param":{"num_deleted":"0","num_feature":"16","num_nodes":"17","size_leaf_vector":"1"}},{"base_weights":[8.703014E-2,9.485947E-1,-3.7064734E-1,5.0295252E-2,5.458523E-1,9.948695E-1,-1.0498317E0,4.8998035E-2,-7.710319E-1,5.190329E-1,5.0608564E-2,-8.295524E-3,-5.264789E-2,7.7896654E-3,-4.6270717E-2,4.1672755E-2,-1.4490239E-2],"categories":[],"categories_nodes":[],"categories_segments":[],"categories_sizes":[],"default_left":[0,0,0,0,0,0,0,0,0,0,0,0,0,0,0,0,0],"id":52,"left_children":[1,3,5,-1,7,9,11,-1,13,15,-1,-1,-1,-1,-1,-1,-1],"loss_changes":[2.6226056E2,4.7760315E0,4.0401233E2,0E0,1.8435574E1,6.6708374E-1,6.28479E-1,0E0,1.321352E0,2.0558834E0,0E0,0E0,0E0,0E0,0E0,0E0,0E0],"parents":[2147483647,0,0,1,1,2,2,4,4,5,5,6,6,8,8,9,9],"right_children":[2,4,6,-1,8,10,12,-1,14,16,-1,-1,-1,-1,-1,-1,-1],"split_conditions":[9.8022774E-2,5.2882796E-3,1.1273929E-2,5.0295252E-2,2.0139383E-1,2.8493954E-3,4.3127187E-2,4.8998035E-2,8.646713E-2,2.1695872E-1,5.0608564E-2,-8.295524E-3,-5.264789E-2,7.7896654E-3,-4.6270717E-2,4.1672755E-2,-1.4490239E-2],"split_indices":[0,0,2,0,2,10,11,0,3,11,0,0,0,0,0,0,0],"split_type":[0,0,0,0,0,0,0,0,0,0,0,0,0,0,0,0,0],"sum_hessian":[6.6320636E2,2.2971046E2,4.3349588E2,1.9978357E2,2.9926897E1,1.4383908E2,2.896568E2,2.26998E1,7.227096E0,6.1341987E0,1.3770488E2,1.211353E0,2.8844543E2,1.0306307E0,6.1964655E0,4.3952017E0,1.738997E0],"tree_param":{"num_deleted":"0","num_feature":"16","num_nodes":"17","size_leaf_vector":"1"}},{"base_weights":[8.1755474E-2,-4.2021003E-1,5.0685644E-2,4.9490765E-2,-8.4098434E-1,8.8659227E-1,-1.017772E0,5.3739727E-1,4.876472E-2,4.0780716E-2,-1.0445651E0,4.3698926E-2,-1.9603208E-2,7.711573E-4,-5.244815E-2],"categories":[],"categories_nodes":[],"categories_segments":[],"categories_sizes":[],"default_left":[0,0,0,0,0,0,0,0,0,0,0,0,0,0,0],"id":53,"left_children":[1,3,-1,-1,5,7,9,11,-1,-1,13,-1,-1,-1,-1],"loss_changes":[2.9790738E2,2.4646072E2,0E0,0E0,9.8449295E1,4.1082573E-1,1.5107544E1,2.9522097E0,0E0,0E0,1.351593E0,0E0,0E0,0E0,0E0],"parents":[2147483647,0,0,1,1,4,4,5,5,6,6,7,7,10,10],"right_children":[2,4,-1,-1,6,8,10,12,-1,-1,14,-1,-1,-1,-1],"split_conditions":[7.498345E-4,5.2882796E-3,5.0685644E-2,4.9490765E-2,1.1273929E-2,2.8493954E-3,4.685342E-1,6.1058336E-1,4.876472E-2,4.0780716E-2,2.3142123E-3,4.3698926E-2,-1.9603208E-2,7.711573E-4,-5.244815E-2],"split_indices":[4,0,0,0,2,10,8,8,0,0,3,0,0,0,0],"split_type":[0,0,0,0,0,0,0,0,0,0,0,0,0,0,0],"sum_hessian":[6.3490155E2,4.1300192E2,2.218996E2,9.460979E1,3.1839215E2,2.9184544E1,2.892076E2,7.3415174E0,2.1843025E1,3.741537E0,2.8546606E2,5.433577E0,1.9079407E0,1.1691428E0,2.8429694E2],"tree_param":{"num_deleted":"0","num_feature":"16","num_nodes":"15","size_leaf_vector":"1"}},{"base_weights":[9.059854E-2,9.570082E-1,-3.658859E-1,5.010305E-2,5.8129483E-1,9.902233E-1,-1.0430998E0,4.8322115E-2,-6.752279E-1,5.110791E-1,5.0476033E-2,-9.903708E-3,-5.2303474E-2,5.892869E-3,-4.2797294E-2,4.125725E-2,-1.8144435E-1,-2.26366E-2,8.9249E-3],"categories":[],"categories_nodes":[],"categories_segments":[],"categories_sizes":[],"default_left":[0,0,0,0,0,0,0,0,0,0,0,0,0,0,0,0,0,0,0],"id":54,"left_children":[1,3,5,-1,7,9,11,-1,13,15,-1,-1,-1,-1,-1,-1,17,-1,-1],"loss_changes":[2.3719768E2,2.9200287E0,3.618928E2,0E0,1.2527193E1,6.988373E-1,4.5169067E-1,0E0,1.010313E0,1.6965338E0,0E0,0E0,0E0,0E0,0E0,0E0,3.7753597E-1,0E0,0E0],"parents":[2147483647,0,0,1,